<?xml version="1.0" encoding="UTF-8" standalone="yes"?>
<PMML xmlns="http://www.dmg.org/PMML-4_4" xmlns:data="http://jpmml.org/jpmml-model/InlineTable" version="4.4">
	<Header>
		<Application name="SkLearn2PMML package" version="0.105.0"/>
		<Timestamp>2024-07-05T12:00:33Z</Timestamp>
	</Header>
	<DataDictionary>
		<DataField name="humidity" optype="continuous" dataType="float"/>
	</DataDictionary>
	<MiningModel functionName="regression" algorithmName="sklearn.ensemble._iforest.IsolationForest">
		<MiningSchema>
			<MiningField name="humidity"/>
		</MiningSchema>
		<Output>
			<OutputField name="rawAnomalyScore" optype="continuous" dataType="double" isFinalResult="false"/>
			<OutputField name="normalizedAnomalyScore" optype="continuous" dataType="double" feature="transformedValue" isFinalResult="false">
				<Apply function="/">
					<FieldRef field="rawAnomalyScore"/>
					<Constant dataType="double">10.244770920119917</Constant>
				</Apply>
			</OutputField>
			<OutputField name="decisionFunction" optype="continuous" dataType="double" feature="transformedValue">
				<Apply function="-">
					<Constant dataType="double">0.6765300281527586</Constant>
					<Apply function="pow">
						<Constant dataType="double">2.0</Constant>
						<Apply function="*">
							<Constant dataType="double">-1.0</Constant>
							<FieldRef field="normalizedAnomalyScore"/>
						</Apply>
					</Apply>
				</Apply>
			</OutputField>
			<OutputField name="outlier" optype="categorical" dataType="boolean" feature="decision">
				<Decisions businessProblem="Is this sample an outlier?">
					<Decision value="true" description="Outlier"/>
					<Decision value="false" description="Not outlier"/>
				</Decisions>
				<Apply function="lessOrEqual">
					<FieldRef field="decisionFunction"/>
					<Constant dataType="double">0.0</Constant>
				</Apply>
			</OutputField>
			<OutputField name="predict(outlier)" optype="categorical" dataType="integer" feature="transformedValue">
				<Apply function="if">
					<FieldRef field="outlier"/>
					<Constant dataType="integer">-1</Constant>
					<Constant dataType="integer">1</Constant>
				</Apply>
				<Value value="-1"/>
				<Value value="1"/>
			</OutputField>
		</Output>
		<LocalTransformations>
			<DerivedField name="double(humidity)" optype="continuous" dataType="double">
				<FieldRef field="humidity"/>
			</DerivedField>
		</LocalTransformations>
		<Segmentation multipleModelMethod="average" missingPredictionTreatment="returnMissing">
			<Segment id="1">
				<True/>
				<TreeModel functionName="regression" missingValueStrategy="nullPrediction" noTrueChildStrategy="returnLastPrediction">
					<MiningSchema>
						<MiningField name="double(humidity)"/>
					</MiningSchema>
					<Node score="3.0">
						<True/>
						<Node score="7.207392357589623">
							<SimplePredicate field="double(humidity)" operator="lessOrEqual" value="53.28294159033592"/>
							<Node score="6.0">
								<SimplePredicate field="double(humidity)" operator="lessOrEqual" value="49.941801247834476"/>
								<Node score="6.851655907139285">
									<SimplePredicate field="double(humidity)" operator="lessOrEqual" value="49.22201619870215"/>
									<Node score="8.0">
										<SimplePredicate field="double(humidity)" operator="lessOrEqual" value="48.3733877750917"/>
										<Node score="8.0">
											<SimplePredicate field="double(humidity)" operator="lessOrEqual" value="47.41487276713125"/>
											<Node score="8.0">
												<SimplePredicate field="double(humidity)" operator="lessOrEqual" value="47.04233091036117"/>
												<Node score="7.0">
													<SimplePredicate field="double(humidity)" operator="lessOrEqual" value="46.53034845368487"/>
												</Node>
											</Node>
											<Node score="7.0">
												<SimplePredicate field="double(humidity)" operator="lessOrEqual" value="47.232025387731674"/>
											</Node>
										</Node>
										<Node score="6.0">
											<SimplePredicate field="double(humidity)" operator="lessOrEqual" value="47.63783207239482"/>
										</Node>
										<Node score="7.0">
											<SimplePredicate field="double(humidity)" operator="lessOrEqual" value="47.87298306503995"/>
										</Node>
										<Node score="9.0">
											<SimplePredicate field="double(humidity)" operator="lessOrEqual" value="47.98411909242982"/>
										</Node>
									</Node>
									<Node score="7.0">
										<SimplePredicate field="double(humidity)" operator="lessOrEqual" value="49.09760474063111"/>
										<Node score="7.0">
											<SimplePredicate field="double(humidity)" operator="lessOrEqual" value="48.92139454483426"/>
										</Node>
									</Node>
								</Node>
								<Node score="6.207392357589623">
									<SimplePredicate field="double(humidity)" operator="lessOrEqual" value="49.76222797298133"/>
									<Node score="8.207392357589622">
										<SimplePredicate field="double(humidity)" operator="lessOrEqual" value="49.66265941805371"/>
										<Node score="6.0">
											<SimplePredicate field="double(humidity)" operator="lessOrEqual" value="49.420430888981265"/>
										</Node>
										<Node score="8.851655907139286">
											<SimplePredicate field="double(humidity)" operator="lessOrEqual" value="49.58158261507827"/>
										</Node>
									</Node>
								</Node>
								<Node score="6.0">
									<SimplePredicate field="double(humidity)" operator="lessOrEqual" value="49.805491909466284"/>
								</Node>
							</Node>
							<Node score="7.207392357589623">
								<SimplePredicate field="double(humidity)" operator="lessOrEqual" value="52.410999120823874"/>
								<Node score="7.207392357589623">
									<SimplePredicate field="double(humidity)" operator="lessOrEqual" value="51.54903657306922"/>
									<Node score="7.851655907139285">
										<SimplePredicate field="double(humidity)" operator="lessOrEqual" value="51.14243213037504"/>
										<Node score="8.207392357589622">
											<SimplePredicate field="double(humidity)" operator="lessOrEqual" value="51.06047492751874"/>
											<Node score="11.023664553973461">
												<SimplePredicate field="double(humidity)" operator="lessOrEqual" value="50.98092173301577"/>
												<Node score="12.565879322366916">
													<SimplePredicate field="double(humidity)" operator="lessOrEqual" value="50.655907379530504"/>
												</Node>
											</Node>
										</Node>
									</Node>
									<Node score="8.0">
										<SimplePredicate field="double(humidity)" operator="lessOrEqual" value="51.41074207377586"/>
										<Node score="8.0">
											<SimplePredicate field="double(humidity)" operator="lessOrEqual" value="51.208050314406734"/>
										</Node>
										<Node score="9.0">
											<SimplePredicate field="double(humidity)" operator="lessOrEqual" value="51.34041525713315"/>
										</Node>
									</Node>
								</Node>
								<Node score="8.0">
									<SimplePredicate field="double(humidity)" operator="lessOrEqual" value="52.27426937570815"/>
									<Node score="9.0">
										<SimplePredicate field="double(humidity)" operator="lessOrEqual" value="51.82321588835367"/>
										<Node score="9.706640488004599">
											<SimplePredicate field="double(humidity)" operator="lessOrEqual" value="51.609068357250315"/>
										</Node>
										<Node score="9.0">
											<SimplePredicate field="double(humidity)" operator="lessOrEqual" value="51.73435124881587"/>
										</Node>
									</Node>
									<Node score="9.0">
										<SimplePredicate field="double(humidity)" operator="lessOrEqual" value="52.142267755438695"/>
										<Node score="9.207392357589622">
											<SimplePredicate field="double(humidity)" operator="lessOrEqual" value="52.01268252438185"/>
										</Node>
									</Node>
								</Node>
								<Node score="7.207392357589623">
									<SimplePredicate field="double(humidity)" operator="lessOrEqual" value="52.30083209026432"/>
								</Node>
							</Node>
							<Node score="7.207392357589623">
								<SimplePredicate field="double(humidity)" operator="lessOrEqual" value="52.853751167809925"/>
								<Node score="6.851655907139285">
									<SimplePredicate field="double(humidity)" operator="lessOrEqual" value="52.54853824179822"/>
								</Node>
								<Node score="8.851655907139286">
									<SimplePredicate field="double(humidity)" operator="lessOrEqual" value="52.71272372368465"/>
									<Node score="8.0">
										<SimplePredicate field="double(humidity)" operator="lessOrEqual" value="52.60507528392352"/>
									</Node>
								</Node>
							</Node>
							<Node score="6.0">
								<SimplePredicate field="double(humidity)" operator="lessOrEqual" value="53.01349023078208"/>
							</Node>
							<Node score="6.0">
								<SimplePredicate field="double(humidity)" operator="lessOrEqual" value="53.15778080388431"/>
							</Node>
						</Node>
						<Node score="7.0">
							<SimplePredicate field="double(humidity)" operator="lessOrEqual" value="84.59399663562533"/>
							<Node score="7.0">
								<SimplePredicate field="double(humidity)" operator="lessOrEqual" value="67.19425796764011"/>
								<Node score="9.0">
									<SimplePredicate field="double(humidity)" operator="lessOrEqual" value="55.96035682863776"/>
									<Node score="8.327020052042847">
										<SimplePredicate field="double(humidity)" operator="lessOrEqual" value="53.73169315434777"/>
										<Node score="7.0">
											<SimplePredicate field="double(humidity)" operator="lessOrEqual" value="53.41370317906739"/>
										</Node>
									</Node>
									<Node score="8.0">
										<SimplePredicate field="double(humidity)" operator="lessOrEqual" value="54.99194075055161"/>
										<Node score="9.0">
											<SimplePredicate field="double(humidity)" operator="lessOrEqual" value="54.5180982801491"/>
											<Node score="9.851655907139286">
												<SimplePredicate field="double(humidity)" operator="lessOrEqual" value="54.346047118513866"/>
											</Node>
										</Node>
										<Node score="9.0">
											<SimplePredicate field="double(humidity)" operator="lessOrEqual" value="54.76686750098724"/>
										</Node>
									</Node>
									<Node score="7.0">
										<SimplePredicate field="double(humidity)" operator="lessOrEqual" value="55.03241065341354"/>
									</Node>
									<Node score="9.851655907139286">
										<SimplePredicate field="double(humidity)" operator="lessOrEqual" value="55.43854440228946"/>
									</Node>
								</Node>
								<Node score="7.0">
									<SimplePredicate field="double(humidity)" operator="lessOrEqual" value="64.40776528398614"/>
									<Node score="12.931969129026609">
										<SimplePredicate field="double(humidity)" operator="lessOrEqual" value="61.62768298396043"/>
										<Node score="8.0">
											<SimplePredicate field="double(humidity)" operator="lessOrEqual" value="56.56143214435384"/>
										</Node>
										<Node score="11.296251627913692">
											<SimplePredicate field="double(humidity)" operator="lessOrEqual" value="58.367057508732074"/>
										</Node>
									</Node>
									<Node score="9.0">
										<SimplePredicate field="double(humidity)" operator="lessOrEqual" value="62.84825875277626"/>
										<Node score="8.0">
											<SimplePredicate field="double(humidity)" operator="lessOrEqual" value="62.52042593424823"/>
										</Node>
									</Node>
								</Node>
								<Node score="7.0">
									<SimplePredicate field="double(humidity)" operator="lessOrEqual" value="65.59136433562514"/>
								</Node>
							</Node>
							<Node score="10.327020052042847">
								<SimplePredicate field="double(humidity)" operator="lessOrEqual" value="76.99046083371155"/>
								<Node score="8.0">
									<SimplePredicate field="double(humidity)" operator="lessOrEqual" value="74.06864677242406"/>
									<Node score="11.748880484475505">
										<SimplePredicate field="double(humidity)" operator="lessOrEqual" value="73.8756733105358"/>
										<Node score="9.0">
											<SimplePredicate field="double(humidity)" operator="lessOrEqual" value="71.11472549536951"/>
											<Node score="8.0">
												<SimplePredicate field="double(humidity)" operator="lessOrEqual" value="69.16681256395151"/>
											</Node>
										</Node>
										<Node score="10.327020052042847">
											<SimplePredicate field="double(humidity)" operator="lessOrEqual" value="73.44613069465669"/>
										</Node>
									</Node>
									<Node score="8.207392357589622">
										<SimplePredicate field="double(humidity)" operator="lessOrEqual" value="73.95630621930395"/>
									</Node>
								</Node>
								<Node score="9.0">
									<SimplePredicate field="double(humidity)" operator="lessOrEqual" value="75.5629986306433"/>
									<Node score="11.023664553973461">
										<SimplePredicate field="double(humidity)" operator="lessOrEqual" value="74.81737087589433"/>
										<Node score="9.207392357589622">
											<SimplePredicate field="double(humidity)" operator="lessOrEqual" value="74.4551222467309"/>
										</Node>
									</Node>
									<Node score="11.748880484475505">
										<SimplePredicate field="double(humidity)" operator="lessOrEqual" value="75.4975627722722"/>
									</Node>
								</Node>
								<Node score="9.0">
									<SimplePredicate field="double(humidity)" operator="lessOrEqual" value="76.00760796675813"/>
									<Node score="9.207392357589622">
										<SimplePredicate field="double(humidity)" operator="lessOrEqual" value="75.83062201584367"/>
									</Node>
								</Node>
								<Node score="11.023664553973461">
									<SimplePredicate field="double(humidity)" operator="lessOrEqual" value="76.43919652528672"/>
								</Node>
							</Node>
							<Node score="6.207392357589623">
								<SimplePredicate field="double(humidity)" operator="lessOrEqual" value="77.11649517923388"/>
							</Node>
							<Node score="8.0">
								<SimplePredicate field="double(humidity)" operator="lessOrEqual" value="77.76651716421662"/>
								<Node score="9.851655907139286">
									<SimplePredicate field="double(humidity)" operator="lessOrEqual" value="77.61694223592846"/>
									<Node score="10.706640488004599">
										<SimplePredicate field="double(humidity)" operator="lessOrEqual" value="77.40189433700358"/>
									</Node>
								</Node>
							</Node>
							<Node score="8.0">
								<SimplePredicate field="double(humidity)" operator="lessOrEqual" value="82.65248032867285"/>
								<Node score="9.207392357589622">
									<SimplePredicate field="double(humidity)" operator="lessOrEqual" value="78.31598866268179"/>
								</Node>
							</Node>
						</Node>
					</Node>
				</TreeModel>
			</Segment>
			<Segment id="2">
				<True/>
				<TreeModel functionName="regression" missingValueStrategy="nullPrediction" noTrueChildStrategy="returnLastPrediction">
					<MiningSchema>
						<MiningField name="double(humidity)"/>
					</MiningSchema>
					<Node score="2.0">
						<True/>
						<Node score="13.241133972149143">
							<SimplePredicate field="double(humidity)" operator="lessOrEqual" value="80.41944717216346"/>
							<Node score="2.0">
								<SimplePredicate field="double(humidity)" operator="lessOrEqual" value="47.07341676197923"/>
							</Node>
							<Node score="8.0">
								<SimplePredicate field="double(humidity)" operator="lessOrEqual" value="57.38353888712988"/>
								<Node score="11.296251627913692">
									<SimplePredicate field="double(humidity)" operator="lessOrEqual" value="53.97481749661865"/>
									<Node score="10.327020052042847">
										<SimplePredicate field="double(humidity)" operator="lessOrEqual" value="48.633088327116376"/>
										<Node score="8.0">
											<SimplePredicate field="double(humidity)" operator="lessOrEqual" value="47.82836195295832"/>
											<Node score="9.0">
												<SimplePredicate field="double(humidity)" operator="lessOrEqual" value="47.505417031027505"/>
												<Node score="8.0">
													<SimplePredicate field="double(humidity)" operator="lessOrEqual" value="47.44154691913227"/>
												</Node>
											</Node>
										</Node>
										<Node score="9.0">
											<SimplePredicate field="double(humidity)" operator="lessOrEqual" value="48.032640896187885"/>
											<Node score="8.0">
												<SimplePredicate field="double(humidity)" operator="lessOrEqual" value="47.91002782264879"/>
											</Node>
										</Node>
										<Node score="9.0">
											<SimplePredicate field="double(humidity)" operator="lessOrEqual" value="48.22470101277563"/>
										</Node>
									</Node>
									<Node score="15.017693026933868">
										<SimplePredicate field="double(humidity)" operator="lessOrEqual" value="52.885775896293765"/>
										<Node score="11.023664553973461">
											<SimplePredicate field="double(humidity)" operator="lessOrEqual" value="49.639301708262124"/>
											<Node score="8.0">
												<SimplePredicate field="double(humidity)" operator="lessOrEqual" value="48.70370520352035"/>
											</Node>
										</Node>
										<Node score="14.320683008337449">
											<SimplePredicate field="double(humidity)" operator="lessOrEqual" value="50.75990611126642"/>
										</Node>
									</Node>
									<Node score="9.207392357589622">
										<SimplePredicate field="double(humidity)" operator="lessOrEqual" value="53.02348554513156"/>
										<Node score="8.0">
											<SimplePredicate field="double(humidity)" operator="lessOrEqual" value="52.907536530446606"/>
										</Node>
									</Node>
									<Node score="9.851655907139286">
										<SimplePredicate field="double(humidity)" operator="lessOrEqual" value="53.477526384505325"/>
									</Node>
								</Node>
								<Node score="6.0">
									<SimplePredicate field="double(humidity)" operator="lessOrEqual" value="54.52657729598418"/>
									<Node score="9.0">
										<SimplePredicate field="double(humidity)" operator="lessOrEqual" value="54.46575719139807"/>
										<Node score="8.0">
											<SimplePredicate field="double(humidity)" operator="lessOrEqual" value="54.08612753443429"/>
										</Node>
										<Node score="8.0">
											<SimplePredicate field="double(humidity)" operator="lessOrEqual" value="54.159374762119675"/>
										</Node>
									</Node>
								</Node>
								<Node score="8.207392357589622">
									<SimplePredicate field="double(humidity)" operator="lessOrEqual" value="56.082212683749916"/>
									<Node score="9.0">
										<SimplePredicate field="double(humidity)" operator="lessOrEqual" value="55.445831784654246"/>
										<Node score="8.0">
											<SimplePredicate field="double(humidity)" operator="lessOrEqual" value="55.34369037477362"/>
										</Node>
									</Node>
								</Node>
								<Node score="7.0">
									<SimplePredicate field="double(humidity)" operator="lessOrEqual" value="56.59028858472582"/>
								</Node>
							</Node>
							<Node score="8.0">
								<SimplePredicate field="double(humidity)" operator="lessOrEqual" value="72.12881970776562"/>
								<Node score="8.0">
									<SimplePredicate field="double(humidity)" operator="lessOrEqual" value="63.748933594969664"/>
									<Node score="9.207392357589622">
										<SimplePredicate field="double(humidity)" operator="lessOrEqual" value="60.563387859692895"/>
										<Node score="9.207392357589622">
											<SimplePredicate field="double(humidity)" operator="lessOrEqual" value="58.112828326982644"/>
											<Node score="8.0">
												<SimplePredicate field="double(humidity)" operator="lessOrEqual" value="57.68253954364105"/>
											</Node>
										</Node>
										<Node score="12.695531732007485">
											<SimplePredicate field="double(humidity)" operator="lessOrEqual" value="60.153319012502166"/>
										</Node>
									</Node>
									<Node score="9.0">
										<SimplePredicate field="double(humidity)" operator="lessOrEqual" value="62.05332518963553"/>
										<Node score="8.0">
											<SimplePredicate field="double(humidity)" operator="lessOrEqual" value="61.31210105829504"/>
										</Node>
									</Node>
									<Node score="9.0">
										<SimplePredicate field="double(humidity)" operator="lessOrEqual" value="62.42283515852077"/>
									</Node>
								</Node>
								<Node score="6.0">
									<SimplePredicate field="double(humidity)" operator="lessOrEqual" value="66.23059921526844"/>
								</Node>
								<Node score="7.0">
									<SimplePredicate field="double(humidity)" operator="lessOrEqual" value="67.17941703830519"/>
								</Node>
								<Node score="9.207392357589622">
									<SimplePredicate field="double(humidity)" operator="lessOrEqual" value="69.98155800382679"/>
								</Node>
							</Node>
							<Node score="8.851655907139286">
								<SimplePredicate field="double(humidity)" operator="lessOrEqual" value="73.6755497967214"/>
								<Node score="7.0">
									<SimplePredicate field="double(humidity)" operator="lessOrEqual" value="73.11146554786684"/>
								</Node>
								<Node score="8.0">
									<SimplePredicate field="double(humidity)" operator="lessOrEqual" value="73.308684418757"/>
								</Node>
							</Node>
							<Node score="11.941419697609339">
								<SimplePredicate field="double(humidity)" operator="lessOrEqual" value="74.8783045746021"/>
								<Node score="11.296251627913692">
									<SimplePredicate field="double(humidity)" operator="lessOrEqual" value="74.2325767451546"/>
									<Node score="8.0">
										<SimplePredicate field="double(humidity)" operator="lessOrEqual" value="73.72343381821338"/>
									</Node>
								</Node>
								<Node score="8.0">
									<SimplePredicate field="double(humidity)" operator="lessOrEqual" value="74.37005592420233"/>
								</Node>
							</Node>
							<Node score="10.706640488004599">
								<SimplePredicate field="double(humidity)" operator="lessOrEqual" value="75.33415698652814"/>
								<Node score="10.327020052042847">
									<SimplePredicate field="double(humidity)" operator="lessOrEqual" value="75.15269198933852"/>
								</Node>
							</Node>
							<Node score="12.695531732007485">
								<SimplePredicate field="double(humidity)" operator="lessOrEqual" value="76.20799126769788"/>
							</Node>
						</Node>
					</Node>
				</TreeModel>
			</Segment>
			<Segment id="3">
				<True/>
				<TreeModel functionName="regression" missingValueStrategy="nullPrediction" noTrueChildStrategy="returnLastPrediction">
					<MiningSchema>
						<MiningField name="double(humidity)"/>
					</MiningSchema>
					<Node score="2.0">
						<True/>
						<Node score="3.0">
							<SimplePredicate field="double(humidity)" operator="lessOrEqual" value="67.66976276394139"/>
							<Node score="8.0">
								<SimplePredicate field="double(humidity)" operator="lessOrEqual" value="60.98266079516242"/>
								<Node score="7.0">
									<SimplePredicate field="double(humidity)" operator="lessOrEqual" value="53.64003591060608"/>
									<Node score="9.327020052042847">
										<SimplePredicate field="double(humidity)" operator="lessOrEqual" value="50.3284689033445"/>
										<Node score="12.931969129026609">
											<SimplePredicate field="double(humidity)" operator="lessOrEqual" value="49.16277432897425"/>
											<Node score="6.0">
												<SimplePredicate field="double(humidity)" operator="lessOrEqual" value="46.609634969912356"/>
											</Node>
											<Node score="8.0">
												<SimplePredicate field="double(humidity)" operator="lessOrEqual" value="47.389893736587695"/>
												<Node score="9.207392357589622">
													<SimplePredicate field="double(humidity)" operator="lessOrEqual" value="46.855416569068154"/>
												</Node>
											</Node>
											<Node score="9.207392357589622">
												<SimplePredicate field="double(humidity)" operator="lessOrEqual" value="47.536989946727466"/>
											</Node>
										</Node>
										<Node score="10.327020052042847">
											<SimplePredicate field="double(humidity)" operator="lessOrEqual" value="50.13949970660708"/>
											<Node score="7.0">
												<SimplePredicate field="double(humidity)" operator="lessOrEqual" value="49.30734304122963"/>
											</Node>
											<Node score="11.748880484475505">
												<SimplePredicate field="double(humidity)" operator="lessOrEqual" value="49.94131611355617"/>
											</Node>
										</Node>
										<Node score="8.207392357589622">
											<SimplePredicate field="double(humidity)" operator="lessOrEqual" value="50.22393555544163"/>
										</Node>
									</Node>
									<Node score="9.851655907139286">
										<SimplePredicate field="double(humidity)" operator="lessOrEqual" value="51.56975988554878"/>
										<Node score="8.0">
											<SimplePredicate field="double(humidity)" operator="lessOrEqual" value="50.5770404521811"/>
											<Node score="8.207392357589622">
												<SimplePredicate field="double(humidity)" operator="lessOrEqual" value="50.476920051720086"/>
											</Node>
										</Node>
										<Node score="12.817255833106158">
											<SimplePredicate field="double(humidity)" operator="lessOrEqual" value="51.38692134291902"/>
											<Node score="8.0">
												<SimplePredicate field="double(humidity)" operator="lessOrEqual" value="50.62091096498447"/>
											</Node>
										</Node>
										<Node score="8.0">
											<SimplePredicate field="double(humidity)" operator="lessOrEqual" value="51.42106184712887"/>
										</Node>
									</Node>
									<Node score="9.0">
										<SimplePredicate field="double(humidity)" operator="lessOrEqual" value="52.70908418535678"/>
										<Node score="9.327020052042847">
											<SimplePredicate field="double(humidity)" operator="lessOrEqual" value="51.63256499494953"/>
										</Node>
										<Node score="13.669106056462542">
											<SimplePredicate field="double(humidity)" operator="lessOrEqual" value="52.67345881228031"/>
										</Node>
									</Node>
									<Node score="8.0">
										<SimplePredicate field="double(humidity)" operator="lessOrEqual" value="53.59164282954485"/>
										<Node score="12.427187187583282">
											<SimplePredicate field="double(humidity)" operator="lessOrEqual" value="53.447013821559594"/>
										</Node>
									</Node>
								</Node>
								<Node score="6.0">
									<SimplePredicate field="double(humidity)" operator="lessOrEqual" value="54.55147181326739"/>
									<Node score="7.0">
										<SimplePredicate field="double(humidity)" operator="lessOrEqual" value="54.03909947785586"/>
										<Node score="6.0">
											<SimplePredicate field="double(humidity)" operator="lessOrEqual" value="53.86252690026871"/>
										</Node>
									</Node>
								</Node>
								<Node score="7.0">
									<SimplePredicate field="double(humidity)" operator="lessOrEqual" value="60.055445810789514"/>
									<Node score="10.327020052042847">
										<SimplePredicate field="double(humidity)" operator="lessOrEqual" value="59.99082141153178"/>
										<Node score="9.0">
											<SimplePredicate field="double(humidity)" operator="lessOrEqual" value="55.510191766685715"/>
											<Node score="10.706640488004599">
												<SimplePredicate field="double(humidity)" operator="lessOrEqual" value="55.49071171465393"/>
											</Node>
										</Node>
										<Node score="12.116888542066473">
											<SimplePredicate field="double(humidity)" operator="lessOrEqual" value="58.98782963266801"/>
										</Node>
									</Node>
								</Node>
								<Node score="6.0">
									<SimplePredicate field="double(humidity)" operator="lessOrEqual" value="60.13707583433653"/>
								</Node>
								<Node score="8.0">
									<SimplePredicate field="double(humidity)" operator="lessOrEqual" value="60.494261373902795"/>
									<Node score="9.0">
										<SimplePredicate field="double(humidity)" operator="lessOrEqual" value="60.34710687419203"/>
									</Node>
								</Node>
							</Node>
							<Node score="7.0">
								<SimplePredicate field="double(humidity)" operator="lessOrEqual" value="67.10183774633217"/>
								<Node score="5.0">
									<SimplePredicate field="double(humidity)" operator="lessOrEqual" value="61.8314221487564"/>
								</Node>
								<Node score="6.0">
									<SimplePredicate field="double(humidity)" operator="lessOrEqual" value="64.5850161406619"/>
									<Node score="8.0">
										<SimplePredicate field="double(humidity)" operator="lessOrEqual" value="62.50244006437468"/>
										<Node score="7.0">
											<SimplePredicate field="double(humidity)" operator="lessOrEqual" value="62.24171078138184"/>
										</Node>
									</Node>
								</Node>
								<Node score="7.0">
									<SimplePredicate field="double(humidity)" operator="lessOrEqual" value="65.75277162741533"/>
									<Node score="8.0">
										<SimplePredicate field="double(humidity)" operator="lessOrEqual" value="65.45853550446314"/>
									</Node>
								</Node>
								<Node score="8.0">
									<SimplePredicate field="double(humidity)" operator="lessOrEqual" value="66.20274021075232"/>
								</Node>
							</Node>
						</Node>
						<Node score="3.0">
							<SimplePredicate field="double(humidity)" operator="lessOrEqual" value="88.9908022823235"/>
							<Node score="7.0">
								<SimplePredicate field="double(humidity)" operator="lessOrEqual" value="79.13266585899176"/>
								<Node score="8.851655907139286">
									<SimplePredicate field="double(humidity)" operator="lessOrEqual" value="74.24859914566004"/>
									<Node score="6.0">
										<SimplePredicate field="double(humidity)" operator="lessOrEqual" value="70.11414185743453"/>
									</Node>
									<Node score="11.296251627913692">
										<SimplePredicate field="double(humidity)" operator="lessOrEqual" value="73.96647336649079"/>
										<Node score="7.0">
											<SimplePredicate field="double(humidity)" operator="lessOrEqual" value="72.77490010619128"/>
										</Node>
										<Node score="10.327020052042847">
											<SimplePredicate field="double(humidity)" operator="lessOrEqual" value="73.6977958906237"/>
										</Node>
									</Node>
									<Node score="8.0">
										<SimplePredicate field="double(humidity)" operator="lessOrEqual" value="74.14171675829968"/>
										<Node score="9.0">
											<SimplePredicate field="double(humidity)" operator="lessOrEqual" value="74.02186981876415"/>
										</Node>
									</Node>
								</Node>
								<Node score="12.817255833106158">
									<SimplePredicate field="double(humidity)" operator="lessOrEqual" value="77.31441889280194"/>
									<Node score="11.023664553973461">
										<SimplePredicate field="double(humidity)" operator="lessOrEqual" value="75.00926243943708"/>
										<Node score="8.0">
											<SimplePredicate field="double(humidity)" operator="lessOrEqual" value="74.51453654346943"/>
										</Node>
										<Node score="9.207392357589622">
											<SimplePredicate field="double(humidity)" operator="lessOrEqual" value="74.69477703967962"/>
										</Node>
									</Node>
									<Node score="7.0">
										<SimplePredicate field="double(humidity)" operator="lessOrEqual" value="75.43150795296228"/>
									</Node>
									<Node score="12.695531732007485">
										<SimplePredicate field="double(humidity)" operator="lessOrEqual" value="76.21240776446905"/>
									</Node>
								</Node>
								<Node score="7.0">
									<SimplePredicate field="double(humidity)" operator="lessOrEqual" value="77.97371597847608"/>
									<Node score="8.0">
										<SimplePredicate field="double(humidity)" operator="lessOrEqual" value="77.76303165196184"/>
										<Node score="9.0">
											<SimplePredicate field="double(humidity)" operator="lessOrEqual" value="77.52843066207053"/>
										</Node>
									</Node>
								</Node>
								<Node score="8.0">
									<SimplePredicate field="double(humidity)" operator="lessOrEqual" value="78.39967870812637"/>
								</Node>
							</Node>
						</Node>
					</Node>
				</TreeModel>
			</Segment>
			<Segment id="4">
				<True/>
				<TreeModel functionName="regression" missingValueStrategy="nullPrediction" noTrueChildStrategy="returnLastPrediction">
					<MiningSchema>
						<MiningField name="double(humidity)"/>
					</MiningSchema>
					<Node score="2.0">
						<True/>
						<Node score="8.207392357589622">
							<SimplePredicate field="double(humidity)" operator="lessOrEqual" value="51.87250718270997"/>
							<Node score="4.0">
								<SimplePredicate field="double(humidity)" operator="lessOrEqual" value="47.06920528977402"/>
								<Node score="4.0">
									<SimplePredicate field="double(humidity)" operator="lessOrEqual" value="46.502911695872776"/>
								</Node>
							</Node>
							<Node score="11.023664553973461">
								<SimplePredicate field="double(humidity)" operator="lessOrEqual" value="49.71589130964356"/>
								<Node score="5.0">
									<SimplePredicate field="double(humidity)" operator="lessOrEqual" value="48.37211697621322"/>
									<Node score="8.0">
										<SimplePredicate field="double(humidity)" operator="lessOrEqual" value="47.905591391729075"/>
										<Node score="7.0">
											<SimplePredicate field="double(humidity)" operator="lessOrEqual" value="47.22394287089088"/>
										</Node>
										<Node score="8.0">
											<SimplePredicate field="double(humidity)" operator="lessOrEqual" value="47.43236718728783"/>
											<Node score="9.0">
												<SimplePredicate field="double(humidity)" operator="lessOrEqual" value="47.397508789308986"/>
											</Node>
										</Node>
										<Node score="9.0">
											<SimplePredicate field="double(humidity)" operator="lessOrEqual" value="47.755662836270474"/>
										</Node>
									</Node>
								</Node>
								<Node score="8.0">
									<SimplePredicate field="double(humidity)" operator="lessOrEqual" value="48.93177081040966"/>
									<Node score="7.0">
										<SimplePredicate field="double(humidity)" operator="lessOrEqual" value="48.53681447253083"/>
										<Node score="8.0">
											<SimplePredicate field="double(humidity)" operator="lessOrEqual" value="48.40802494538603"/>
										</Node>
									</Node>
									<Node score="8.0">
										<SimplePredicate field="double(humidity)" operator="lessOrEqual" value="48.67790942523721"/>
									</Node>
									<Node score="9.207392357589622">
										<SimplePredicate field="double(humidity)" operator="lessOrEqual" value="48.71393879958679"/>
									</Node>
								</Node>
								<Node score="6.0">
									<SimplePredicate field="double(humidity)" operator="lessOrEqual" value="49.186835441855976"/>
								</Node>
								<Node score="9.207392357589622">
									<SimplePredicate field="double(humidity)" operator="lessOrEqual" value="49.32004577974791"/>
									<Node score="9.851655907139286">
										<SimplePredicate field="double(humidity)" operator="lessOrEqual" value="49.25596750095017"/>
									</Node>
								</Node>
								<Node score="9.0">
									<SimplePredicate field="double(humidity)" operator="lessOrEqual" value="49.47082806046239"/>
								</Node>
							</Node>
							<Node score="9.0">
								<SimplePredicate field="double(humidity)" operator="lessOrEqual" value="51.2312255061377"/>
								<Node score="11.53553663538496">
									<SimplePredicate field="double(humidity)" operator="lessOrEqual" value="50.313006834426254"/>
									<Node score="8.0">
										<SimplePredicate field="double(humidity)" operator="lessOrEqual" value="49.91409841883653"/>
										<Node score="8.851655907139286">
											<SimplePredicate field="double(humidity)" operator="lessOrEqual" value="49.826110783233986"/>
										</Node>
									</Node>
									<Node score="8.0">
										<SimplePredicate field="double(humidity)" operator="lessOrEqual" value="50.06507975949995"/>
									</Node>
									<Node score="11.023664553973461">
										<SimplePredicate field="double(humidity)" operator="lessOrEqual" value="50.16412408416119"/>
									</Node>
								</Node>
								<Node score="7.0">
									<SimplePredicate field="double(humidity)" operator="lessOrEqual" value="50.77159438363681"/>
									<Node score="9.0">
										<SimplePredicate field="double(humidity)" operator="lessOrEqual" value="50.646341102617036"/>
										<Node score="10.706640488004599">
											<SimplePredicate field="double(humidity)" operator="lessOrEqual" value="50.5071769388065"/>
										</Node>
									</Node>
								</Node>
								<Node score="9.0">
									<SimplePredicate field="double(humidity)" operator="lessOrEqual" value="51.002757041709664"/>
									<Node score="9.0">
										<SimplePredicate field="double(humidity)" operator="lessOrEqual" value="50.865236580971406"/>
									</Node>
								</Node>
								<Node score="11.023664553973461">
									<SimplePredicate field="double(humidity)" operator="lessOrEqual" value="51.1216536715131"/>
								</Node>
							</Node>
							<Node score="5.0">
								<SimplePredicate field="double(humidity)" operator="lessOrEqual" value="51.341736170017036"/>
							</Node>
							<Node score="7.207392357589623">
								<SimplePredicate field="double(humidity)" operator="lessOrEqual" value="51.49648305611902"/>
							</Node>
							<Node score="9.851655907139286">
								<SimplePredicate field="double(humidity)" operator="lessOrEqual" value="51.72948633237972"/>
								<Node score="9.851655907139286">
									<SimplePredicate field="double(humidity)" operator="lessOrEqual" value="51.52226976093625"/>
								</Node>
							</Node>
						</Node>
						<Node score="7.0">
							<SimplePredicate field="double(humidity)" operator="lessOrEqual" value="89.03587740581884"/>
							<Node score="13.590538990498956">
								<SimplePredicate field="double(humidity)" operator="lessOrEqual" value="76.79753076191838"/>
								<Node score="7.0">
									<SimplePredicate field="double(humidity)" operator="lessOrEqual" value="63.903936881664194"/>
									<Node score="7.0">
										<SimplePredicate field="double(humidity)" operator="lessOrEqual" value="61.476195091649984"/>
										<Node score="12.27809078322522">
											<SimplePredicate field="double(humidity)" operator="lessOrEqual" value="59.06476626310223"/>
											<Node score="11.023664553973461">
												<SimplePredicate field="double(humidity)" operator="lessOrEqual" value="53.087371378653636"/>
												<Node score="13.423472758258828">
													<SimplePredicate field="double(humidity)" operator="lessOrEqual" value="52.8272928484282"/>
												</Node>
											</Node>
											<Node score="12.116888542066473">
												<SimplePredicate field="double(humidity)" operator="lessOrEqual" value="53.97917894914447"/>
											</Node>
										</Node>
										<Node score="10.327020052042847">
											<SimplePredicate field="double(humidity)" operator="lessOrEqual" value="61.141214754576986"/>
											<Node score="11.53553663538496">
												<SimplePredicate field="double(humidity)" operator="lessOrEqual" value="60.28245884281698"/>
											</Node>
										</Node>
									</Node>
									<Node score="8.0">
										<SimplePredicate field="double(humidity)" operator="lessOrEqual" value="62.956440174741545"/>
										<Node score="7.0">
											<SimplePredicate field="double(humidity)" operator="lessOrEqual" value="62.454909910035035"/>
										</Node>
										<Node score="9.207392357589622">
											<SimplePredicate field="double(humidity)" operator="lessOrEqual" value="62.54933150789226"/>
										</Node>
									</Node>
								</Node>
								<Node score="7.0">
									<SimplePredicate field="double(humidity)" operator="lessOrEqual" value="65.53434423372818"/>
									<Node score="6.0">
										<SimplePredicate field="double(humidity)" operator="lessOrEqual" value="64.70192194027626"/>
									</Node>
								</Node>
								<Node score="7.0">
									<SimplePredicate field="double(humidity)" operator="lessOrEqual" value="68.98017790740364"/>
								</Node>
								<Node score="13.04043800349013">
									<SimplePredicate field="double(humidity)" operator="lessOrEqual" value="74.52684641816104"/>
									<Node score="8.0">
										<SimplePredicate field="double(humidity)" operator="lessOrEqual" value="73.24654335470244"/>
									</Node>
								</Node>
								<Node score="11.53553663538496">
									<SimplePredicate field="double(humidity)" operator="lessOrEqual" value="74.95092798479219"/>
								</Node>
							</Node>
							<Node score="6.0">
								<SimplePredicate field="double(humidity)" operator="lessOrEqual" value="77.21437525850901"/>
								<Node score="6.0">
									<SimplePredicate field="double(humidity)" operator="lessOrEqual" value="77.18858943981841"/>
									<Node score="7.0">
										<SimplePredicate field="double(humidity)" operator="lessOrEqual" value="77.05815311412692"/>
										<Node score="9.207392357589622">
											<SimplePredicate field="double(humidity)" operator="lessOrEqual" value="76.93501461809898"/>
											<Node score="8.0">
												<SimplePredicate field="double(humidity)" operator="lessOrEqual" value="76.86271034141019"/>
											</Node>
										</Node>
									</Node>
								</Node>
							</Node>
							<Node score="5.0">
								<SimplePredicate field="double(humidity)" operator="lessOrEqual" value="77.54297100647213"/>
							</Node>
							<Node score="10.327020052042847">
								<SimplePredicate field="double(humidity)" operator="lessOrEqual" value="78.41685343305409"/>
								<Node score="8.0">
									<SimplePredicate field="double(humidity)" operator="lessOrEqual" value="77.78433665000247"/>
								</Node>
								<Node score="8.0">
									<SimplePredicate field="double(humidity)" operator="lessOrEqual" value="77.8357874488159"/>
								</Node>
							</Node>
						</Node>
					</Node>
				</TreeModel>
			</Segment>
			<Segment id="5">
				<True/>
				<TreeModel functionName="regression" missingValueStrategy="nullPrediction" noTrueChildStrategy="returnLastPrediction">
					<MiningSchema>
						<MiningField name="double(humidity)"/>
					</MiningSchema>
					<Node score="4.0">
						<True/>
						<Node score="9.207392357589622">
							<SimplePredicate field="double(humidity)" operator="lessOrEqual" value="76.80377977848958"/>
							<Node score="7.0">
								<SimplePredicate field="double(humidity)" operator="lessOrEqual" value="60.25279612611599"/>
								<Node score="9.0">
									<SimplePredicate field="double(humidity)" operator="lessOrEqual" value="58.20903422994175"/>
									<Node score="4.0">
										<SimplePredicate field="double(humidity)" operator="lessOrEqual" value="47.059843425956274"/>
									</Node>
									<Node score="14.084905738773358">
										<SimplePredicate field="double(humidity)" operator="lessOrEqual" value="54.185170263507025"/>
										<Node score="9.207392357589622">
											<SimplePredicate field="double(humidity)" operator="lessOrEqual" value="51.34582911489803"/>
											<Node score="15.094654616022526">
												<SimplePredicate field="double(humidity)" operator="lessOrEqual" value="51.0627399954987"/>
												<Node score="12.27809078322522">
													<SimplePredicate field="double(humidity)" operator="lessOrEqual" value="48.58987888069569"/>
												</Node>
											</Node>
											<Node score="9.207392357589622">
												<SimplePredicate field="double(humidity)" operator="lessOrEqual" value="51.10812261177264"/>
											</Node>
										</Node>
										<Node score="10.327020052042847">
											<SimplePredicate field="double(humidity)" operator="lessOrEqual" value="51.64357787031679"/>
											<Node score="11.023664553973461">
												<SimplePredicate field="double(humidity)" operator="lessOrEqual" value="51.58425033261405"/>
											</Node>
										</Node>
										<Node score="11.941419697609339">
											<SimplePredicate field="double(humidity)" operator="lessOrEqual" value="52.057759643936"/>
										</Node>
									</Node>
									<Node score="8.0">
										<SimplePredicate field="double(humidity)" operator="lessOrEqual" value="55.15533876278675"/>
										<Node score="8.0">
											<SimplePredicate field="double(humidity)" operator="lessOrEqual" value="54.605516465897004"/>
											<Node score="10.706640488004599">
												<SimplePredicate field="double(humidity)" operator="lessOrEqual" value="54.53496219287876"/>
											</Node>
										</Node>
									</Node>
									<Node score="8.0">
										<SimplePredicate field="double(humidity)" operator="lessOrEqual" value="55.73874346280412"/>
										<Node score="9.207392357589622">
											<SimplePredicate field="double(humidity)" operator="lessOrEqual" value="55.41051378862568"/>
										</Node>
									</Node>
									<Node score="8.0">
										<SimplePredicate field="double(humidity)" operator="lessOrEqual" value="57.517335380239416"/>
									</Node>
								</Node>
								<Node score="5.0">
									<SimplePredicate field="double(humidity)" operator="lessOrEqual" value="59.17039038424615"/>
								</Node>
								<Node score="6.0">
									<SimplePredicate field="double(humidity)" operator="lessOrEqual" value="59.30629140842068"/>
								</Node>
								<Node score="7.0">
									<SimplePredicate field="double(humidity)" operator="lessOrEqual" value="59.63580173017295"/>
								</Node>
								<Node score="9.851655907139286">
									<SimplePredicate field="double(humidity)" operator="lessOrEqual" value="60.105345751575406"/>
									<Node score="8.0">
										<SimplePredicate field="double(humidity)" operator="lessOrEqual" value="59.86514940939724"/>
									</Node>
								</Node>
							</Node>
							<Node score="7.0">
								<SimplePredicate field="double(humidity)" operator="lessOrEqual" value="63.64419434219109"/>
								<Node score="5.0">
									<SimplePredicate field="double(humidity)" operator="lessOrEqual" value="61.23283174722264"/>
								</Node>
								<Node score="7.0">
									<SimplePredicate field="double(humidity)" operator="lessOrEqual" value="61.78055125267806"/>
									<Node score="6.0">
										<SimplePredicate field="double(humidity)" operator="lessOrEqual" value="61.68114384601227"/>
									</Node>
								</Node>
								<Node score="7.0">
									<SimplePredicate field="double(humidity)" operator="lessOrEqual" value="62.17313042377186"/>
								</Node>
								<Node score="8.0">
									<SimplePredicate field="double(humidity)" operator="lessOrEqual" value="62.49246354114918"/>
								</Node>
							</Node>
							<Node score="7.0">
								<SimplePredicate field="double(humidity)" operator="lessOrEqual" value="70.36586434517758"/>
								<Node score="9.0">
									<SimplePredicate field="double(humidity)" operator="lessOrEqual" value="67.56660817217437"/>
									<Node score="6.0">
										<SimplePredicate field="double(humidity)" operator="lessOrEqual" value="64.71494934638727"/>
									</Node>
									<Node score="9.0">
										<SimplePredicate field="double(humidity)" operator="lessOrEqual" value="65.48292915303396"/>
										<Node score="8.0">
											<SimplePredicate field="double(humidity)" operator="lessOrEqual" value="65.37297988042025"/>
										</Node>
									</Node>
									<Node score="8.0">
										<SimplePredicate field="double(humidity)" operator="lessOrEqual" value="65.57635886472637"/>
									</Node>
								</Node>
								<Node score="7.0">
									<SimplePredicate field="double(humidity)" operator="lessOrEqual" value="68.26261202736879"/>
								</Node>
							</Node>
							<Node score="5.0">
								<SimplePredicate field="double(humidity)" operator="lessOrEqual" value="72.12158955814269"/>
							</Node>
							<Node score="7.0">
								<SimplePredicate field="double(humidity)" operator="lessOrEqual" value="73.36589666854864"/>
								<Node score="9.0">
									<SimplePredicate field="double(humidity)" operator="lessOrEqual" value="72.82069766256387"/>
									<Node score="9.0">
										<SimplePredicate field="double(humidity)" operator="lessOrEqual" value="72.45895280417005"/>
									</Node>
								</Node>
							</Node>
							<Node score="12.695531732007485">
								<SimplePredicate field="double(humidity)" operator="lessOrEqual" value="76.12810788218842"/>
								<Node score="13.334385296159002">
									<SimplePredicate field="double(humidity)" operator="lessOrEqual" value="74.63456013297409"/>
								</Node>
							</Node>
							<Node score="11.53553663538496">
								<SimplePredicate field="double(humidity)" operator="lessOrEqual" value="76.61036671008142"/>
							</Node>
						</Node>
						<Node score="5.0">
							<SimplePredicate field="double(humidity)" operator="lessOrEqual" value="80.01546036141087"/>
							<Node score="6.7066404880045996">
								<SimplePredicate field="double(humidity)" operator="lessOrEqual" value="77.24312567153092"/>
								<Node score="6.0">
									<SimplePredicate field="double(humidity)" operator="lessOrEqual" value="77.02313978591332"/>
									<Node score="5.0">
										<SimplePredicate field="double(humidity)" operator="lessOrEqual" value="76.98551036086364"/>
									</Node>
								</Node>
							</Node>
							<Node score="7.0">
								<SimplePredicate field="double(humidity)" operator="lessOrEqual" value="78.67095826536926"/>
								<Node score="7.0">
									<SimplePredicate field="double(humidity)" operator="lessOrEqual" value="77.5663257478151"/>
									<Node score="7.0">
										<SimplePredicate field="double(humidity)" operator="lessOrEqual" value="77.30472999089864"/>
									</Node>
								</Node>
								<Node score="6.0">
									<SimplePredicate field="double(humidity)" operator="lessOrEqual" value="77.8229693701068"/>
								</Node>
							</Node>
						</Node>
						<Node score="5.0">
							<SimplePredicate field="double(humidity)" operator="lessOrEqual" value="88.2245154796196"/>
							<Node score="4.0">
								<SimplePredicate field="double(humidity)" operator="lessOrEqual" value="81.93699441083523"/>
							</Node>
						</Node>
					</Node>
				</TreeModel>
			</Segment>
			<Segment id="6">
				<True/>
				<TreeModel functionName="regression" missingValueStrategy="nullPrediction" noTrueChildStrategy="returnLastPrediction">
					<MiningSchema>
						<MiningField name="double(humidity)"/>
					</MiningSchema>
					<Node score="3.0">
						<True/>
						<Node score="1.0">
							<SimplePredicate field="double(humidity)" operator="lessOrEqual" value="18.808677863493735"/>
						</Node>
						<Node score="5.0">
							<SimplePredicate field="double(humidity)" operator="lessOrEqual" value="87.02586120891658"/>
							<Node score="14.81123457021327">
								<SimplePredicate field="double(humidity)" operator="lessOrEqual" value="76.94105237160858"/>
								<Node score="7.0">
									<SimplePredicate field="double(humidity)" operator="lessOrEqual" value="49.441280768802564"/>
									<Node score="6.0">
										<SimplePredicate field="double(humidity)" operator="lessOrEqual" value="49.228813005284266"/>
										<Node score="12.27809078322522">
											<SimplePredicate field="double(humidity)" operator="lessOrEqual" value="48.95216240974153"/>
											<Node score="9.851655907139286">
												<SimplePredicate field="double(humidity)" operator="lessOrEqual" value="47.3455688510687"/>
												<Node score="8.0">
													<SimplePredicate field="double(humidity)" operator="lessOrEqual" value="46.91988178262586"/>
												</Node>
											</Node>
											<Node score="9.207392357589622">
												<SimplePredicate field="double(humidity)" operator="lessOrEqual" value="47.798833365337416"/>
											</Node>
										</Node>
									</Node>
									<Node score="6.0">
										<SimplePredicate field="double(humidity)" operator="lessOrEqual" value="49.38369070840661"/>
									</Node>
								</Node>
								<Node score="7.0">
									<SimplePredicate field="double(humidity)" operator="lessOrEqual" value="64.73299603442"/>
									<Node score="11.023664553973461">
										<SimplePredicate field="double(humidity)" operator="lessOrEqual" value="61.04575378985412"/>
										<Node score="10.327020052042847">
											<SimplePredicate field="double(humidity)" operator="lessOrEqual" value="56.32814943040795"/>
											<Node score="16.462260747133428">
												<SimplePredicate field="double(humidity)" operator="lessOrEqual" value="55.24048553149606"/>
											</Node>
										</Node>
										<Node score="12.565879322366916">
											<SimplePredicate field="double(humidity)" operator="lessOrEqual" value="59.7317219874038"/>
										</Node>
									</Node>
									<Node score="8.0">
										<SimplePredicate field="double(humidity)" operator="lessOrEqual" value="63.74685149224073"/>
										<Node score="11.023664553973461">
											<SimplePredicate field="double(humidity)" operator="lessOrEqual" value="63.37810507577425"/>
										</Node>
									</Node>
								</Node>
								<Node score="8.0">
									<SimplePredicate field="double(humidity)" operator="lessOrEqual" value="66.88548866493083"/>
									<Node score="8.0">
										<SimplePredicate field="double(humidity)" operator="lessOrEqual" value="65.8086767535273"/>
										<Node score="9.0">
											<SimplePredicate field="double(humidity)" operator="lessOrEqual" value="65.10128243408742"/>
										</Node>
									</Node>
								</Node>
								<Node score="8.0">
									<SimplePredicate field="double(humidity)" operator="lessOrEqual" value="70.86854824616849"/>
									<Node score="9.207392357589622">
										<SimplePredicate field="double(humidity)" operator="lessOrEqual" value="69.08819722520245"/>
									</Node>
								</Node>
								<Node score="12.27809078322522">
									<SimplePredicate field="double(humidity)" operator="lessOrEqual" value="74.11976555655846"/>
								</Node>
							</Node>
							<Node score="7.0">
								<SimplePredicate field="double(humidity)" operator="lessOrEqual" value="78.37065121129652"/>
								<Node score="8.207392357589622">
									<SimplePredicate field="double(humidity)" operator="lessOrEqual" value="77.52596238447804"/>
									<Node score="8.0">
										<SimplePredicate field="double(humidity)" operator="lessOrEqual" value="77.18291497239048"/>
										<Node score="8.207392357589622">
											<SimplePredicate field="double(humidity)" operator="lessOrEqual" value="77.08837402593535"/>
										</Node>
									</Node>
									<Node score="9.0">
										<SimplePredicate field="double(humidity)" operator="lessOrEqual" value="77.43969889186162"/>
										<Node score="8.0">
											<SimplePredicate field="double(humidity)" operator="lessOrEqual" value="77.34884663998044"/>
										</Node>
									</Node>
								</Node>
								<Node score="7.0">
									<SimplePredicate field="double(humidity)" operator="lessOrEqual" value="77.8186565280772"/>
								</Node>
							</Node>
							<Node score="7.0">
								<SimplePredicate field="double(humidity)" operator="lessOrEqual" value="85.06521015784374"/>
								<Node score="6.0">
									<SimplePredicate field="double(humidity)" operator="lessOrEqual" value="80.91456742130646"/>
								</Node>
							</Node>
						</Node>
					</Node>
				</TreeModel>
			</Segment>
			<Segment id="7">
				<True/>
				<TreeModel functionName="regression" missingValueStrategy="nullPrediction" noTrueChildStrategy="returnLastPrediction">
					<MiningSchema>
						<MiningField name="double(humidity)"/>
					</MiningSchema>
					<Node score="6.0">
						<True/>
						<Node score="2.0">
							<SimplePredicate field="double(humidity)" operator="lessOrEqual" value="46.32325452790981"/>
						</Node>
						<Node score="9.0">
							<SimplePredicate field="double(humidity)" operator="lessOrEqual" value="50.96203180407401"/>
							<Node score="5.0">
								<SimplePredicate field="double(humidity)" operator="lessOrEqual" value="47.43857367929059"/>
								<Node score="4.0">
									<SimplePredicate field="double(humidity)" operator="lessOrEqual" value="46.59231190267416"/>
								</Node>
							</Node>
							<Node score="6.207392357589623">
								<SimplePredicate field="double(humidity)" operator="lessOrEqual" value="49.10485306498823"/>
								<Node score="9.851655907139286">
									<SimplePredicate field="double(humidity)" operator="lessOrEqual" value="49.025926115189804"/>
									<Node score="9.0">
										<SimplePredicate field="double(humidity)" operator="lessOrEqual" value="48.27916185268162"/>
										<Node score="8.0">
											<SimplePredicate field="double(humidity)" operator="lessOrEqual" value="47.8153427403026"/>
											<Node score="9.0">
												<SimplePredicate field="double(humidity)" operator="lessOrEqual" value="47.75468202044616"/>
											</Node>
										</Node>
										<Node score="8.0">
											<SimplePredicate field="double(humidity)" operator="lessOrEqual" value="47.951154253796204"/>
										</Node>
									</Node>
									<Node score="8.207392357589622">
										<SimplePredicate field="double(humidity)" operator="lessOrEqual" value="48.395955519838374"/>
									</Node>
									<Node score="9.207392357589622">
										<SimplePredicate field="double(humidity)" operator="lessOrEqual" value="48.46604896483852"/>
									</Node>
								</Node>
							</Node>
							<Node score="8.0">
								<SimplePredicate field="double(humidity)" operator="lessOrEqual" value="49.91590637341882"/>
								<Node score="8.0">
									<SimplePredicate field="double(humidity)" operator="lessOrEqual" value="49.711787532228875"/>
									<Node score="9.0">
										<SimplePredicate field="double(humidity)" operator="lessOrEqual" value="49.625709687850936"/>
										<Node score="9.207392357589622">
											<SimplePredicate field="double(humidity)" operator="lessOrEqual" value="49.51741903811771"/>
										</Node>
									</Node>
								</Node>
								<Node score="8.0">
									<SimplePredicate field="double(humidity)" operator="lessOrEqual" value="49.854719067868906"/>
								</Node>
							</Node>
							<Node score="8.0">
								<SimplePredicate field="double(humidity)" operator="lessOrEqual" value="50.49884146848144"/>
								<Node score="7.0">
									<SimplePredicate field="double(humidity)" operator="lessOrEqual" value="50.113516171560214"/>
								</Node>
								<Node score="9.0">
									<SimplePredicate field="double(humidity)" operator="lessOrEqual" value="50.317370922775034"/>
								</Node>
							</Node>
							<Node score="9.207392357589622">
								<SimplePredicate field="double(humidity)" operator="lessOrEqual" value="50.69246253391706"/>
								<Node score="9.851655907139286">
									<SimplePredicate field="double(humidity)" operator="lessOrEqual" value="50.52557273751373"/>
								</Node>
							</Node>
							<Node score="9.0">
								<SimplePredicate field="double(humidity)" operator="lessOrEqual" value="50.824472858009855"/>
							</Node>
						</Node>
						<Node score="6.0">
							<SimplePredicate field="double(humidity)" operator="lessOrEqual" value="72.00670804754847"/>
							<Node score="9.851655907139286">
								<SimplePredicate field="double(humidity)" operator="lessOrEqual" value="67.25931479142015"/>
								<Node score="12.27809078322522">
									<SimplePredicate field="double(humidity)" operator="lessOrEqual" value="55.60614328830138"/>
									<Node score="8.0">
										<SimplePredicate field="double(humidity)" operator="lessOrEqual" value="53.27228654781979"/>
										<Node score="14.629194510830729">
											<SimplePredicate field="double(humidity)" operator="lessOrEqual" value="53.18988265136939"/>
											<Node score="12.931969129026609">
												<SimplePredicate field="double(humidity)" operator="lessOrEqual" value="51.591558489359116"/>
											</Node>
										</Node>
									</Node>
									<Node score="10.327020052042847">
										<SimplePredicate field="double(humidity)" operator="lessOrEqual" value="54.001442624609616"/>
										<Node score="10.706640488004599">
											<SimplePredicate field="double(humidity)" operator="lessOrEqual" value="53.85812566329638"/>
										</Node>
									</Node>
									<Node score="8.0">
										<SimplePredicate field="double(humidity)" operator="lessOrEqual" value="54.29237644639443"/>
									</Node>
								</Node>
								<Node score="12.27809078322522">
									<SimplePredicate field="double(humidity)" operator="lessOrEqual" value="59.731583291758476"/>
									<Node score="8.0">
										<SimplePredicate field="double(humidity)" operator="lessOrEqual" value="56.887393791781456"/>
										<Node score="9.0">
											<SimplePredicate field="double(humidity)" operator="lessOrEqual" value="56.44957541041972"/>
										</Node>
									</Node>
									<Node score="8.0">
										<SimplePredicate field="double(humidity)" operator="lessOrEqual" value="57.462902206208426"/>
									</Node>
								</Node>
								<Node score="8.0">
									<SimplePredicate field="double(humidity)" operator="lessOrEqual" value="63.08240161988333"/>
									<Node score="12.817255833106158">
										<SimplePredicate field="double(humidity)" operator="lessOrEqual" value="62.88503491367349"/>
									</Node>
								</Node>
								<Node score="9.0">
									<SimplePredicate field="double(humidity)" operator="lessOrEqual" value="64.44795015508284"/>
								</Node>
							</Node>
							<Node score="6.0">
								<SimplePredicate field="double(humidity)" operator="lessOrEqual" value="69.18305381181547"/>
								<Node score="7.0">
									<SimplePredicate field="double(humidity)" operator="lessOrEqual" value="68.49606730848829"/>
								</Node>
							</Node>
						</Node>
						<Node score="7.0">
							<SimplePredicate field="double(humidity)" operator="lessOrEqual" value="73.597859449542"/>
							<Node score="7.0">
								<SimplePredicate field="double(humidity)" operator="lessOrEqual" value="72.8636696267328"/>
								<Node score="7.0">
									<SimplePredicate field="double(humidity)" operator="lessOrEqual" value="72.30040415101703"/>
								</Node>
								<Node score="8.0">
									<SimplePredicate field="double(humidity)" operator="lessOrEqual" value="72.66361359888288"/>
								</Node>
							</Node>
							<Node score="7.0">
								<SimplePredicate field="double(humidity)" operator="lessOrEqual" value="73.3818841955407"/>
							</Node>
							<Node score="8.0">
								<SimplePredicate field="double(humidity)" operator="lessOrEqual" value="73.4956784670734"/>
							</Node>
						</Node>
						<Node score="7.0">
							<SimplePredicate field="double(humidity)" operator="lessOrEqual" value="77.75263682625037"/>
							<Node score="8.0">
								<SimplePredicate field="double(humidity)" operator="lessOrEqual" value="77.43144978761275"/>
								<Node score="9.0">
									<SimplePredicate field="double(humidity)" operator="lessOrEqual" value="76.62850570533588"/>
									<Node score="14.937649678149459">
										<SimplePredicate field="double(humidity)" operator="lessOrEqual" value="76.44492303526258"/>
									</Node>
								</Node>
								<Node score="10.706640488004599">
									<SimplePredicate field="double(humidity)" operator="lessOrEqual" value="77.39441165257894"/>
								</Node>
							</Node>
							<Node score="8.0">
								<SimplePredicate field="double(humidity)" operator="lessOrEqual" value="77.53750036685109"/>
							</Node>
						</Node>
					</Node>
				</TreeModel>
			</Segment>
			<Segment id="8">
				<True/>
				<TreeModel functionName="regression" missingValueStrategy="nullPrediction" noTrueChildStrategy="returnLastPrediction">
					<MiningSchema>
						<MiningField name="double(humidity)"/>
					</MiningSchema>
					<Node score="3.0">
						<True/>
						<Node score="8.0">
							<SimplePredicate field="double(humidity)" operator="lessOrEqual" value="72.62199779455423"/>
							<Node score="8.207392357589622">
								<SimplePredicate field="double(humidity)" operator="lessOrEqual" value="50.43198476932638"/>
								<Node score="8.207392357589622">
									<SimplePredicate field="double(humidity)" operator="lessOrEqual" value="48.10103144807923"/>
									<Node score="5.0">
										<SimplePredicate field="double(humidity)" operator="lessOrEqual" value="47.19588428404859"/>
										<Node score="7.0">
											<SimplePredicate field="double(humidity)" operator="lessOrEqual" value="46.975061180372634"/>
											<Node score="9.207392357589622">
												<SimplePredicate field="double(humidity)" operator="lessOrEqual" value="46.78033529938818"/>
												<Node score="9.0">
													<SimplePredicate field="double(humidity)" operator="lessOrEqual" value="46.45580433716802"/>
													<Node score="8.0">
														<SimplePredicate field="double(humidity)" operator="lessOrEqual" value="46.22739084242194"/>
													</Node>
												</Node>
												<Node score="8.0">
													<SimplePredicate field="double(humidity)" operator="lessOrEqual" value="46.59099466088992"/>
												</Node>
											</Node>
										</Node>
									</Node>
									<Node score="5.0">
										<SimplePredicate field="double(humidity)" operator="lessOrEqual" value="47.23155378303935"/>
									</Node>
									<Node score="7.0">
										<SimplePredicate field="double(humidity)" operator="lessOrEqual" value="47.66476036934462"/>
									</Node>
									<Node score="8.0">
										<SimplePredicate field="double(humidity)" operator="lessOrEqual" value="47.78353343346538"/>
									</Node>
								</Node>
								<Node score="6.0">
									<SimplePredicate field="double(humidity)" operator="lessOrEqual" value="48.95057377355293"/>
									<Node score="9.0">
										<SimplePredicate field="double(humidity)" operator="lessOrEqual" value="48.79738699310506"/>
										<Node score="8.0">
											<SimplePredicate field="double(humidity)" operator="lessOrEqual" value="48.36874273124558"/>
											<Node score="7.0">
												<SimplePredicate field="double(humidity)" operator="lessOrEqual" value="48.209823094190455"/>
											</Node>
										</Node>
										<Node score="9.207392357589622">
											<SimplePredicate field="double(humidity)" operator="lessOrEqual" value="48.55224781347551"/>
											<Node score="9.0">
												<SimplePredicate field="double(humidity)" operator="lessOrEqual" value="48.46482834675682"/>
											</Node>
										</Node>
										<Node score="9.0">
											<SimplePredicate field="double(humidity)" operator="lessOrEqual" value="48.65102907896503"/>
										</Node>
									</Node>
								</Node>
								<Node score="7.0">
									<SimplePredicate field="double(humidity)" operator="lessOrEqual" value="49.52063797072341"/>
									<Node score="8.207392357589622">
										<SimplePredicate field="double(humidity)" operator="lessOrEqual" value="49.493384209366994"/>
										<Node score="8.207392357589622">
											<SimplePredicate field="double(humidity)" operator="lessOrEqual" value="49.157311893243026"/>
										</Node>
									</Node>
								</Node>
								<Node score="8.851655907139286">
									<SimplePredicate field="double(humidity)" operator="lessOrEqual" value="50.016647050897014"/>
									<Node score="8.0">
										<SimplePredicate field="double(humidity)" operator="lessOrEqual" value="49.91008520486341"/>
										<Node score="11.023664553973461">
											<SimplePredicate field="double(humidity)" operator="lessOrEqual" value="49.894076186071324"/>
										</Node>
									</Node>
								</Node>
								<Node score="10.706640488004599">
									<SimplePredicate field="double(humidity)" operator="lessOrEqual" value="50.38294642032695"/>
									<Node score="9.207392357589622">
										<SimplePredicate field="double(humidity)" operator="lessOrEqual" value="50.17861440782337"/>
									</Node>
								</Node>
							</Node>
							<Node score="7.0">
								<SimplePredicate field="double(humidity)" operator="lessOrEqual" value="62.9315959374328"/>
								<Node score="7.0">
									<SimplePredicate field="double(humidity)" operator="lessOrEqual" value="59.24254783402711"/>
									<Node score="9.207392357589622">
										<SimplePredicate field="double(humidity)" operator="lessOrEqual" value="53.6154574731614"/>
										<Node score="13.334385296159002">
											<SimplePredicate field="double(humidity)" operator="lessOrEqual" value="52.0758021141897"/>
											<Node score="11.748880484475505">
												<SimplePredicate field="double(humidity)" operator="lessOrEqual" value="51.139707084344565"/>
												<Node score="11.023664553973461">
													<SimplePredicate field="double(humidity)" operator="lessOrEqual" value="50.621787940429314"/>
												</Node>
											</Node>
											<Node score="10.706640488004599">
												<SimplePredicate field="double(humidity)" operator="lessOrEqual" value="51.23438156732471"/>
											</Node>
										</Node>
										<Node score="10.706640488004599">
											<SimplePredicate field="double(humidity)" operator="lessOrEqual" value="52.867153203202605"/>
											<Node score="12.27809078322522">
												<SimplePredicate field="double(humidity)" operator="lessOrEqual" value="52.529883423030945"/>
											</Node>
										</Node>
										<Node score="9.207392357589622">
											<SimplePredicate field="double(humidity)" operator="lessOrEqual" value="53.140734078223915"/>
										</Node>
									</Node>
									<Node score="9.0">
										<SimplePredicate field="double(humidity)" operator="lessOrEqual" value="58.565481390711795"/>
										<Node score="11.023664553973461">
											<SimplePredicate field="double(humidity)" operator="lessOrEqual" value="56.15245091994922"/>
											<Node score="9.207392357589622">
												<SimplePredicate field="double(humidity)" operator="lessOrEqual" value="54.52809678921348"/>
											</Node>
										</Node>
										<Node score="11.023664553973461">
											<SimplePredicate field="double(humidity)" operator="lessOrEqual" value="57.820531292508996"/>
										</Node>
									</Node>
								</Node>
								<Node score="7.0">
									<SimplePredicate field="double(humidity)" operator="lessOrEqual" value="60.04526590624919"/>
									<Node score="8.0">
										<SimplePredicate field="double(humidity)" operator="lessOrEqual" value="59.583592807815066"/>
										<Node score="9.0">
											<SimplePredicate field="double(humidity)" operator="lessOrEqual" value="59.428626545071374"/>
											<Node score="8.0">
												<SimplePredicate field="double(humidity)" operator="lessOrEqual" value="59.358506308324756"/>
											</Node>
										</Node>
									</Node>
									<Node score="9.0">
										<SimplePredicate field="double(humidity)" operator="lessOrEqual" value="59.76998442100914"/>
										<Node score="8.0">
											<SimplePredicate field="double(humidity)" operator="lessOrEqual" value="59.68400721055777"/>
										</Node>
									</Node>
								</Node>
								<Node score="9.207392357589622">
									<SimplePredicate field="double(humidity)" operator="lessOrEqual" value="62.49330304846517"/>
									<Node score="7.0">
										<SimplePredicate field="double(humidity)" operator="lessOrEqual" value="60.42212727455977"/>
									</Node>
									<Node score="9.0">
										<SimplePredicate field="double(humidity)" operator="lessOrEqual" value="61.9932857091757"/>
									</Node>
								</Node>
								<Node score="8.0">
									<SimplePredicate field="double(humidity)" operator="lessOrEqual" value="62.81206962297515"/>
								</Node>
							</Node>
							<Node score="6.0">
								<SimplePredicate field="double(humidity)" operator="lessOrEqual" value="68.61491557685441"/>
								<Node score="5.0">
									<SimplePredicate field="double(humidity)" operator="lessOrEqual" value="64.29720825036404"/>
								</Node>
								<Node score="7.0">
									<SimplePredicate field="double(humidity)" operator="lessOrEqual" value="65.84299747840303"/>
								</Node>
							</Node>
							<Node score="5.0">
								<SimplePredicate field="double(humidity)" operator="lessOrEqual" value="69.34342980551482"/>
							</Node>
							<Node score="6.0">
								<SimplePredicate field="double(humidity)" operator="lessOrEqual" value="70.4857061835405"/>
							</Node>
							<Node score="7.0">
								<SimplePredicate field="double(humidity)" operator="lessOrEqual" value="71.06542269894386"/>
							</Node>
						</Node>
						<Node score="6.0">
							<SimplePredicate field="double(humidity)" operator="lessOrEqual" value="76.4378829766019"/>
							<Node score="7.0">
								<SimplePredicate field="double(humidity)" operator="lessOrEqual" value="74.1027477248335"/>
								<Node score="5.0">
									<SimplePredicate field="double(humidity)" operator="lessOrEqual" value="73.40599666932916"/>
									<Node score="6.0">
										<SimplePredicate field="double(humidity)" operator="lessOrEqual" value="73.36422934053932"/>
									</Node>
								</Node>
								<Node score="6.0">
									<SimplePredicate field="double(humidity)" operator="lessOrEqual" value="73.60790866474058"/>
								</Node>
								<Node score="9.0">
									<SimplePredicate field="double(humidity)" operator="lessOrEqual" value="74.04211957799271"/>
									<Node score="9.0">
										<SimplePredicate field="double(humidity)" operator="lessOrEqual" value="73.83041643633443"/>
										<Node score="8.0">
											<SimplePredicate field="double(humidity)" operator="lessOrEqual" value="73.70598388899974"/>
										</Node>
									</Node>
									<Node score="8.0">
										<SimplePredicate field="double(humidity)" operator="lessOrEqual" value="73.98739710741923"/>
									</Node>
								</Node>
							</Node>
							<Node score="7.0">
								<SimplePredicate field="double(humidity)" operator="lessOrEqual" value="76.28732096902655"/>
								<Node score="11.53553663538496">
									<SimplePredicate field="double(humidity)" operator="lessOrEqual" value="75.87633765528707"/>
									<Node score="8.0">
										<SimplePredicate field="double(humidity)" operator="lessOrEqual" value="74.68531641731286"/>
										<Node score="9.207392357589622">
											<SimplePredicate field="double(humidity)" operator="lessOrEqual" value="74.5563219957375"/>
											<Node score="9.0">
												<SimplePredicate field="double(humidity)" operator="lessOrEqual" value="74.33703831697207"/>
											</Node>
										</Node>
									</Node>
									<Node score="11.53553663538496">
										<SimplePredicate field="double(humidity)" operator="lessOrEqual" value="75.13472580456964"/>
										<Node score="9.0">
											<SimplePredicate field="double(humidity)" operator="lessOrEqual" value="74.72665051499933"/>
										</Node>
									</Node>
									<Node score="8.0">
										<SimplePredicate field="double(humidity)" operator="lessOrEqual" value="75.32856557496102"/>
									</Node>
								</Node>
								<Node score="7.207392357589623">
									<SimplePredicate field="double(humidity)" operator="lessOrEqual" value="76.10448217405023"/>
								</Node>
							</Node>
							<Node score="6.207392357589623">
								<SimplePredicate field="double(humidity)" operator="lessOrEqual" value="76.3674922441821"/>
							</Node>
						</Node>
						<Node score="5.0">
							<SimplePredicate field="double(humidity)" operator="lessOrEqual" value="90.30101033197764"/>
							<Node score="7.0">
								<SimplePredicate field="double(humidity)" operator="lessOrEqual" value="79.02383441730566"/>
								<Node score="8.0">
									<SimplePredicate field="double(humidity)" operator="lessOrEqual" value="77.66005171203066"/>
									<Node score="8.0">
										<SimplePredicate field="double(humidity)" operator="lessOrEqual" value="76.60425762586753"/>
										<Node score="7.0">
											<SimplePredicate field="double(humidity)" operator="lessOrEqual" value="76.57899623941198"/>
										</Node>
									</Node>
									<Node score="9.851655907139286">
										<SimplePredicate field="double(humidity)" operator="lessOrEqual" value="77.36156962386802"/>
										<Node score="9.851655907139286">
											<SimplePredicate field="double(humidity)" operator="lessOrEqual" value="76.80543477433103"/>
										</Node>
									</Node>
								</Node>
								<Node score="8.0">
									<SimplePredicate field="double(humidity)" operator="lessOrEqual" value="77.83566672647933"/>
									<Node score="7.0">
										<SimplePredicate field="double(humidity)" operator="lessOrEqual" value="77.76844138152417"/>
									</Node>
								</Node>
							</Node>
							<Node score="6.0">
								<SimplePredicate field="double(humidity)" operator="lessOrEqual" value="80.80733648457078"/>
								<Node score="7.0">
									<SimplePredicate field="double(humidity)" operator="lessOrEqual" value="79.69929747341106"/>
								</Node>
							</Node>
						</Node>
					</Node>
				</TreeModel>
			</Segment>
			<Segment id="9">
				<True/>
				<TreeModel functionName="regression" missingValueStrategy="nullPrediction" noTrueChildStrategy="returnLastPrediction">
					<MiningSchema>
						<MiningField name="double(humidity)"/>
					</MiningSchema>
					<Node score="4.0">
						<True/>
						<Node score="7.0">
							<SimplePredicate field="double(humidity)" operator="lessOrEqual" value="58.60786590440961"/>
							<Node score="3.0">
								<SimplePredicate field="double(humidity)" operator="lessOrEqual" value="46.63668674513594"/>
							</Node>
							<Node score="6.0">
								<SimplePredicate field="double(humidity)" operator="lessOrEqual" value="55.33827297566933"/>
								<Node score="9.207392357589622">
									<SimplePredicate field="double(humidity)" operator="lessOrEqual" value="50.95469782732769"/>
									<Node score="6.0">
										<SimplePredicate field="double(humidity)" operator="lessOrEqual" value="47.196771253038555"/>
										<Node score="7.0">
											<SimplePredicate field="double(humidity)" operator="lessOrEqual" value="47.04678357463294"/>
										</Node>
									</Node>
									<Node score="7.0">
										<SimplePredicate field="double(humidity)" operator="lessOrEqual" value="48.380130213647234"/>
										<Node score="9.0">
											<SimplePredicate field="double(humidity)" operator="lessOrEqual" value="48.082316556198926"/>
											<Node score="9.851655907139286">
												<SimplePredicate field="double(humidity)" operator="lessOrEqual" value="47.953582207883514"/>
											</Node>
										</Node>
									</Node>
									<Node score="8.0">
										<SimplePredicate field="double(humidity)" operator="lessOrEqual" value="48.61214792077958"/>
									</Node>
									<Node score="14.854267314270619">
										<SimplePredicate field="double(humidity)" operator="lessOrEqual" value="50.71079534082852"/>
									</Node>
								</Node>
								<Node score="9.0">
									<SimplePredicate field="double(humidity)" operator="lessOrEqual" value="54.01499655561083"/>
									<Node score="11.53553663538496">
										<SimplePredicate field="double(humidity)" operator="lessOrEqual" value="52.83492242594698"/>
										<Node score="9.851655907139286">
											<SimplePredicate field="double(humidity)" operator="lessOrEqual" value="51.19015648716883"/>
											<Node score="9.0">
												<SimplePredicate field="double(humidity)" operator="lessOrEqual" value="51.007484379483195"/>
											</Node>
										</Node>
										<Node score="13.669106056462542">
											<SimplePredicate field="double(humidity)" operator="lessOrEqual" value="52.05111075674701"/>
										</Node>
									</Node>
									<Node score="8.0">
										<SimplePredicate field="double(humidity)" operator="lessOrEqual" value="53.671308704545396"/>
										<Node score="11.748880484475505">
											<SimplePredicate field="double(humidity)" operator="lessOrEqual" value="53.465983005921615"/>
										</Node>
									</Node>
									<Node score="9.0">
										<SimplePredicate field="double(humidity)" operator="lessOrEqual" value="53.87810736129096"/>
									</Node>
								</Node>
								<Node score="7.0">
									<SimplePredicate field="double(humidity)" operator="lessOrEqual" value="55.12440259544195"/>
									<Node score="9.0">
										<SimplePredicate field="double(humidity)" operator="lessOrEqual" value="54.76994784989858"/>
										<Node score="8.0">
											<SimplePredicate field="double(humidity)" operator="lessOrEqual" value="54.38943384621989"/>
										</Node>
									</Node>
								</Node>
							</Node>
							<Node score="7.207392357589623">
								<SimplePredicate field="double(humidity)" operator="lessOrEqual" value="56.10459892921334"/>
								<Node score="5.0">
									<SimplePredicate field="double(humidity)" operator="lessOrEqual" value="55.50099369848504"/>
								</Node>
								<Node score="7.0">
									<SimplePredicate field="double(humidity)" operator="lessOrEqual" value="55.64050047679309"/>
								</Node>
							</Node>
							<Node score="7.0">
								<SimplePredicate field="double(humidity)" operator="lessOrEqual" value="57.38736746093286"/>
								<Node score="6.0">
									<SimplePredicate field="double(humidity)" operator="lessOrEqual" value="56.52391020102222"/>
								</Node>
								<Node score="9.207392357589622">
									<SimplePredicate field="double(humidity)" operator="lessOrEqual" value="57.20699366031497"/>
									<Node score="8.0">
										<SimplePredicate field="double(humidity)" operator="lessOrEqual" value="56.908987586083484"/>
									</Node>
								</Node>
							</Node>
							<Node score="6.0">
								<SimplePredicate field="double(humidity)" operator="lessOrEqual" value="57.96852468031855"/>
							</Node>
						</Node>
						<Node score="5.0">
							<SimplePredicate field="double(humidity)" operator="lessOrEqual" value="73.46833698628964"/>
							<Node score="8.0">
								<SimplePredicate field="double(humidity)" operator="lessOrEqual" value="72.14034785527953"/>
								<Node score="8.0">
									<SimplePredicate field="double(humidity)" operator="lessOrEqual" value="62.106734223128676"/>
									<Node score="7.0">
										<SimplePredicate field="double(humidity)" operator="lessOrEqual" value="60.52952321841567"/>
										<Node score="9.0">
											<SimplePredicate field="double(humidity)" operator="lessOrEqual" value="59.544889287019565"/>
											<Node score="7.0">
												<SimplePredicate field="double(humidity)" operator="lessOrEqual" value="58.733077931466084"/>
											</Node>
											<Node score="8.0">
												<SimplePredicate field="double(humidity)" operator="lessOrEqual" value="59.11095393983725"/>
											</Node>
										</Node>
										<Node score="9.0">
											<SimplePredicate field="double(humidity)" operator="lessOrEqual" value="59.91491507697007"/>
											<Node score="8.0">
												<SimplePredicate field="double(humidity)" operator="lessOrEqual" value="59.67151731799899"/>
											</Node>
										</Node>
									</Node>
									<Node score="7.0">
										<SimplePredicate field="double(humidity)" operator="lessOrEqual" value="61.33294218557908"/>
										<Node score="8.0">
											<SimplePredicate field="double(humidity)" operator="lessOrEqual" value="60.997133462184365"/>
										</Node>
									</Node>
									<Node score="8.0">
										<SimplePredicate field="double(humidity)" operator="lessOrEqual" value="61.55169899883234"/>
									</Node>
									<Node score="9.0">
										<SimplePredicate field="double(humidity)" operator="lessOrEqual" value="61.94394988258345"/>
									</Node>
								</Node>
								<Node score="6.0">
									<SimplePredicate field="double(humidity)" operator="lessOrEqual" value="62.69777334643035"/>
									<Node score="7.0">
										<SimplePredicate field="double(humidity)" operator="lessOrEqual" value="62.59064248683254"/>
									</Node>
								</Node>
								<Node score="9.851655907139286">
									<SimplePredicate field="double(humidity)" operator="lessOrEqual" value="66.45103694019804"/>
									<Node score="8.0">
										<SimplePredicate field="double(humidity)" operator="lessOrEqual" value="64.15765419554712"/>
									</Node>
									<Node score="8.0">
										<SimplePredicate field="double(humidity)" operator="lessOrEqual" value="64.70149704323255"/>
									</Node>
								</Node>
								<Node score="8.0">
									<SimplePredicate field="double(humidity)" operator="lessOrEqual" value="67.80949836985747"/>
								</Node>
							</Node>
							<Node score="4.0">
								<SimplePredicate field="double(humidity)" operator="lessOrEqual" value="72.49470382942724"/>
							</Node>
							<Node score="7.0">
								<SimplePredicate field="double(humidity)" operator="lessOrEqual" value="73.39394446278033"/>
								<Node score="7.0">
									<SimplePredicate field="double(humidity)" operator="lessOrEqual" value="72.86866484163703"/>
								</Node>
							</Node>
						</Node>
						<Node score="6.0">
							<SimplePredicate field="double(humidity)" operator="lessOrEqual" value="90.55534942480455"/>
							<Node score="7.0">
								<SimplePredicate field="double(humidity)" operator="lessOrEqual" value="78.03766667929132"/>
								<Node score="9.851655907139286">
									<SimplePredicate field="double(humidity)" operator="lessOrEqual" value="76.96159032583184"/>
									<Node score="8.0">
										<SimplePredicate field="double(humidity)" operator="lessOrEqual" value="74.96226893474643"/>
										<Node score="12.565879322366916">
											<SimplePredicate field="double(humidity)" operator="lessOrEqual" value="74.83088564206966"/>
											<Node score="11.023664553973461">
												<SimplePredicate field="double(humidity)" operator="lessOrEqual" value="74.1240277498431"/>
											</Node>
										</Node>
									</Node>
									<Node score="12.931969129026609">
										<SimplePredicate field="double(humidity)" operator="lessOrEqual" value="76.40231070372727"/>
										<Node score="11.023664553973461">
											<SimplePredicate field="double(humidity)" operator="lessOrEqual" value="75.57313652878565"/>
										</Node>
									</Node>
									<Node score="11.296251627913692">
										<SimplePredicate field="double(humidity)" operator="lessOrEqual" value="76.86631292346415"/>
									</Node>
								</Node>
								<Node score="9.851655907139286">
									<SimplePredicate field="double(humidity)" operator="lessOrEqual" value="77.49720266422531"/>
									<Node score="8.207392357589622">
										<SimplePredicate field="double(humidity)" operator="lessOrEqual" value="77.03831417723877"/>
									</Node>
									<Node score="9.207392357589622">
										<SimplePredicate field="double(humidity)" operator="lessOrEqual" value="77.16389416063775"/>
									</Node>
								</Node>
								<Node score="8.0">
									<SimplePredicate field="double(humidity)" operator="lessOrEqual" value="77.6715455042674"/>
								</Node>
							</Node>
							<Node score="6.0">
								<SimplePredicate field="double(humidity)" operator="lessOrEqual" value="82.37846015448868"/>
							</Node>
						</Node>
					</Node>
				</TreeModel>
			</Segment>
			<Segment id="10">
				<True/>
				<TreeModel functionName="regression" missingValueStrategy="nullPrediction" noTrueChildStrategy="returnLastPrediction">
					<MiningSchema>
						<MiningField name="double(humidity)"/>
					</MiningSchema>
					<Node score="5.0">
						<True/>
						<Node score="5.0">
							<SimplePredicate field="double(humidity)" operator="lessOrEqual" value="53.977401718300484"/>
							<Node score="7.0">
								<SimplePredicate field="double(humidity)" operator="lessOrEqual" value="48.65772476384457"/>
								<Node score="3.0">
									<SimplePredicate field="double(humidity)" operator="lessOrEqual" value="46.708189430153624"/>
								</Node>
								<Node score="7.0">
									<SimplePredicate field="double(humidity)" operator="lessOrEqual" value="47.86726824745319"/>
									<Node score="6.0">
										<SimplePredicate field="double(humidity)" operator="lessOrEqual" value="47.4767528242789"/>
									</Node>
									<Node score="6.0">
										<SimplePredicate field="double(humidity)" operator="lessOrEqual" value="47.67451816647435"/>
									</Node>
								</Node>
								<Node score="6.0">
									<SimplePredicate field="double(humidity)" operator="lessOrEqual" value="47.95119471316492"/>
								</Node>
								<Node score="7.0">
									<SimplePredicate field="double(humidity)" operator="lessOrEqual" value="48.25197643449096"/>
								</Node>
							</Node>
							<Node score="4.0">
								<SimplePredicate field="double(humidity)" operator="lessOrEqual" value="51.73342674790272"/>
								<Node score="10.327020052042847">
									<SimplePredicate field="double(humidity)" operator="lessOrEqual" value="51.60861742119706"/>
									<Node score="6.0">
										<SimplePredicate field="double(humidity)" operator="lessOrEqual" value="50.3430513711367"/>
										<Node score="13.334385296159002">
											<SimplePredicate field="double(humidity)" operator="lessOrEqual" value="50.160243601752555"/>
											<Node score="8.0">
												<SimplePredicate field="double(humidity)" operator="lessOrEqual" value="48.70483604503275"/>
											</Node>
											<Node score="9.851655907139286">
												<SimplePredicate field="double(humidity)" operator="lessOrEqual" value="49.166673670465826"/>
											</Node>
										</Node>
									</Node>
									<Node score="11.023664553973461">
										<SimplePredicate field="double(humidity)" operator="lessOrEqual" value="51.00769947402095"/>
										<Node score="9.207392357589622">
											<SimplePredicate field="double(humidity)" operator="lessOrEqual" value="50.696931711052585"/>
											<Node score="10.706640488004599">
												<SimplePredicate field="double(humidity)" operator="lessOrEqual" value="50.469583419978285"/>
											</Node>
										</Node>
										<Node score="9.0">
											<SimplePredicate field="double(humidity)" operator="lessOrEqual" value="50.7858350681676"/>
										</Node>
									</Node>
									<Node score="12.427187187583282">
										<SimplePredicate field="double(humidity)" operator="lessOrEqual" value="51.4523298015596"/>
										<Node score="10.327020052042847">
											<SimplePredicate field="double(humidity)" operator="lessOrEqual" value="51.178466165957"/>
										</Node>
									</Node>
									<Node score="8.0">
										<SimplePredicate field="double(humidity)" operator="lessOrEqual" value="51.510455324456636"/>
									</Node>
								</Node>
							</Node>
							<Node score="8.0">
								<SimplePredicate field="double(humidity)" operator="lessOrEqual" value="53.56655299373276"/>
								<Node score="9.0">
									<SimplePredicate field="double(humidity)" operator="lessOrEqual" value="52.709969300127874"/>
									<Node score="7.0">
										<SimplePredicate field="double(humidity)" operator="lessOrEqual" value="51.87967769009042"/>
									</Node>
									<Node score="12.116888542066473">
										<SimplePredicate field="double(humidity)" operator="lessOrEqual" value="52.569715072724534"/>
										<Node score="11.023664553973461">
											<SimplePredicate field="double(humidity)" operator="lessOrEqual" value="52.007868617823284"/>
										</Node>
									</Node>
									<Node score="8.0">
										<SimplePredicate field="double(humidity)" operator="lessOrEqual" value="52.686487625587716"/>
									</Node>
								</Node>
								<Node score="8.0">
									<SimplePredicate field="double(humidity)" operator="lessOrEqual" value="53.08033764442973"/>
									<Node score="8.0">
										<SimplePredicate field="double(humidity)" operator="lessOrEqual" value="52.977022645691065"/>
										<Node score="9.0">
											<SimplePredicate field="double(humidity)" operator="lessOrEqual" value="52.88066207982133"/>
										</Node>
									</Node>
								</Node>
								<Node score="9.851655907139286">
									<SimplePredicate field="double(humidity)" operator="lessOrEqual" value="53.32101930678672"/>
									<Node score="10.706640488004599">
										<SimplePredicate field="double(humidity)" operator="lessOrEqual" value="53.16885943970445"/>
									</Node>
								</Node>
							</Node>
							<Node score="6.0">
								<SimplePredicate field="double(humidity)" operator="lessOrEqual" value="53.79123391787802"/>
							</Node>
						</Node>
						<Node score="4.0">
							<SimplePredicate field="double(humidity)" operator="lessOrEqual" value="59.36028781266021"/>
							<Node score="8.0">
								<SimplePredicate field="double(humidity)" operator="lessOrEqual" value="58.02464562677323"/>
								<Node score="5.0">
									<SimplePredicate field="double(humidity)" operator="lessOrEqual" value="54.28789914178799"/>
									<Node score="6.0">
										<SimplePredicate field="double(humidity)" operator="lessOrEqual" value="54.1714734543717"/>
									</Node>
								</Node>
								<Node score="7.0">
									<SimplePredicate field="double(humidity)" operator="lessOrEqual" value="56.37119283254645"/>
									<Node score="7.0">
										<SimplePredicate field="double(humidity)" operator="lessOrEqual" value="54.9926078750516"/>
									</Node>
									<Node score="8.0">
										<SimplePredicate field="double(humidity)" operator="lessOrEqual" value="56.24631017338548"/>
										<Node score="9.851655907139286">
											<SimplePredicate field="double(humidity)" operator="lessOrEqual" value="55.76924286483286"/>
										</Node>
									</Node>
								</Node>
								<Node score="7.0">
									<SimplePredicate field="double(humidity)" operator="lessOrEqual" value="56.538699962610394"/>
								</Node>
								<Node score="7.0">
									<SimplePredicate field="double(humidity)" operator="lessOrEqual" value="57.2587459540686"/>
								</Node>
							</Node>
							<Node score="5.0">
								<SimplePredicate field="double(humidity)" operator="lessOrEqual" value="58.667793388011226"/>
							</Node>
						</Node>
						<Node score="8.207392357589622">
							<SimplePredicate field="double(humidity)" operator="lessOrEqual" value="75.45354189726223"/>
							<Node score="7.0">
								<SimplePredicate field="double(humidity)" operator="lessOrEqual" value="69.29840895994492"/>
								<Node score="7.0">
									<SimplePredicate field="double(humidity)" operator="lessOrEqual" value="64.97589337152486"/>
									<Node score="9.0">
										<SimplePredicate field="double(humidity)" operator="lessOrEqual" value="60.25769418145423"/>
										<Node score="9.851655907139286">
											<SimplePredicate field="double(humidity)" operator="lessOrEqual" value="59.879825077299145"/>
											<Node score="9.207392357589622">
												<SimplePredicate field="double(humidity)" operator="lessOrEqual" value="59.64850510983681"/>
											</Node>
										</Node>
										<Node score="9.207392357589622">
											<SimplePredicate field="double(humidity)" operator="lessOrEqual" value="60.12203623365566"/>
										</Node>
									</Node>
									<Node score="11.53553663538496">
										<SimplePredicate field="double(humidity)" operator="lessOrEqual" value="63.22555190264908"/>
										<Node score="9.0">
											<SimplePredicate field="double(humidity)" operator="lessOrEqual" value="61.549289730819545"/>
										</Node>
									</Node>
								</Node>
								<Node score="7.0">
									<SimplePredicate field="double(humidity)" operator="lessOrEqual" value="68.71838778732773"/>
									<Node score="8.0">
										<SimplePredicate field="double(humidity)" operator="lessOrEqual" value="65.9401140346429"/>
										<Node score="9.207392357589622">
											<SimplePredicate field="double(humidity)" operator="lessOrEqual" value="65.87682391539676"/>
										</Node>
									</Node>
								</Node>
							</Node>
							<Node score="7.0">
								<SimplePredicate field="double(humidity)" operator="lessOrEqual" value="73.89485917994227"/>
								<Node score="9.0">
									<SimplePredicate field="double(humidity)" operator="lessOrEqual" value="73.53234507055481"/>
									<Node score="9.207392357589622">
										<SimplePredicate field="double(humidity)" operator="lessOrEqual" value="73.35684074082265"/>
										<Node score="9.0">
											<SimplePredicate field="double(humidity)" operator="lessOrEqual" value="72.93272456430088"/>
										</Node>
									</Node>
									<Node score="9.207392357589622">
										<SimplePredicate field="double(humidity)" operator="lessOrEqual" value="73.4443962514381"/>
									</Node>
								</Node>
							</Node>
							<Node score="8.0">
								<SimplePredicate field="double(humidity)" operator="lessOrEqual" value="75.07803862713186"/>
								<Node score="8.0">
									<SimplePredicate field="double(humidity)" operator="lessOrEqual" value="74.85303733346149"/>
									<Node score="12.565879322366916">
										<SimplePredicate field="double(humidity)" operator="lessOrEqual" value="74.71611979939371"/>
									</Node>
								</Node>
							</Node>
							<Node score="9.0">
								<SimplePredicate field="double(humidity)" operator="lessOrEqual" value="75.31119849779606"/>
								<Node score="9.851655907139286">
									<SimplePredicate field="double(humidity)" operator="lessOrEqual" value="75.24489126063517"/>
								</Node>
							</Node>
						</Node>
						<Node score="8.0">
							<SimplePredicate field="double(humidity)" operator="lessOrEqual" value="79.04089142378288"/>
							<Node score="7.851655907139285">
								<SimplePredicate field="double(humidity)" operator="lessOrEqual" value="75.71260582968249"/>
								<Node score="7.851655907139285">
									<SimplePredicate field="double(humidity)" operator="lessOrEqual" value="75.55508136512775"/>
								</Node>
							</Node>
							<Node score="11.748880484475505">
								<SimplePredicate field="double(humidity)" operator="lessOrEqual" value="77.51088656752248"/>
								<Node score="8.0">
									<SimplePredicate field="double(humidity)" operator="lessOrEqual" value="76.27850093936439"/>
									<Node score="9.851655907139286">
										<SimplePredicate field="double(humidity)" operator="lessOrEqual" value="76.1140500474093"/>
									</Node>
								</Node>
								<Node score="11.023664553973461">
									<SimplePredicate field="double(humidity)" operator="lessOrEqual" value="76.57613830017189"/>
								</Node>
							</Node>
							<Node score="8.851655907139286">
								<SimplePredicate field="double(humidity)" operator="lessOrEqual" value="77.7418855332782"/>
							</Node>
						</Node>
					</Node>
				</TreeModel>
			</Segment>
			<Segment id="11">
				<True/>
				<TreeModel functionName="regression" missingValueStrategy="nullPrediction" noTrueChildStrategy="returnLastPrediction">
					<MiningSchema>
						<MiningField name="double(humidity)"/>
					</MiningSchema>
					<Node score="2.0">
						<True/>
