<?xml version="1.0" encoding="UTF-8" standalone="yes"?>
<PMML xmlns="http://www.dmg.org/PMML-4_4" xmlns:data="http://jpmml.org/jpmml-model/InlineTable" version="4.4">
	<Header>
		<Application name="SkLearn2PMML package" version="0.105.0"/>
		<Timestamp>2024-07-05T11:59:58Z</Timestamp>
	</Header>
	<DataDictionary>
		<DataField name="temp" optype="continuous" dataType="float"/>
	</DataDictionary>
	<MiningModel functionName="regression" algorithmName="sklearn.ensemble._iforest.IsolationForest">
		<MiningSchema>
			<MiningField name="temp"/>
		</MiningSchema>
		<Output>
			<OutputField name="rawAnomalyScore" optype="continuous" dataType="double" isFinalResult="false"/>
			<OutputField name="normalizedAnomalyScore" optype="continuous" dataType="double" feature="transformedValue" isFinalResult="false">
				<Apply function="/">
					<FieldRef field="rawAnomalyScore"/>
					<Constant dataType="double">10.244770920119917</Constant>
				</Apply>
			</OutputField>
			<OutputField name="decisionFunction" optype="continuous" dataType="double" feature="transformedValue">
				<Apply function="-">
					<Constant dataType="double">0.6870791808700958</Constant>
					<Apply function="pow">
						<Constant dataType="double">2.0</Constant>
						<Apply function="*">
							<Constant dataType="double">-1.0</Constant>
							<FieldRef field="normalizedAnomalyScore"/>
						</Apply>
					</Apply>
				</Apply>
			</OutputField>
			<OutputField name="outlier" optype="categorical" dataType="boolean" feature="decision">
				<Decisions businessProblem="Is this sample an outlier?">
					<Decision value="true" description="Outlier"/>
					<Decision value="false" description="Not outlier"/>
				</Decisions>
				<Apply function="lessOrEqual">
					<FieldRef field="decisionFunction"/>
					<Constant dataType="double">0.0</Constant>
				</Apply>
			</OutputField>
			<OutputField name="predict(outlier)" optype="categorical" dataType="integer" feature="transformedValue">
				<Apply function="if">
					<FieldRef field="outlier"/>
					<Constant dataType="integer">-1</Constant>
					<Constant dataType="integer">1</Constant>
				</Apply>
				<Value value="-1"/>
				<Value value="1"/>
			</OutputField>
		</Output>
		<LocalTransformations>
			<DerivedField name="double(temp)" optype="continuous" dataType="double">
				<FieldRef field="temp"/>
			</DerivedField>
		</LocalTransformations>
		<Segmentation multipleModelMethod="average" missingPredictionTreatment="returnMissing">
			<Segment id="1">
				<True/>
				<TreeModel functionName="regression" missingValueStrategy="nullPrediction" noTrueChildStrategy="returnLastPrediction">
					<MiningSchema>
						<MiningField name="double(temp)"/>
					</MiningSchema>
					<Node score="3.0">
						<True/>
						<Node score="10.53553663538496">
							<SimplePredicate field="double(temp)" operator="lessOrEqual" value="21.81343007400326"/>
							<Node score="2.0">
								<SimplePredicate field="double(temp)" operator="lessOrEqual" value="18.619023913801158"/>
							</Node>
							<Node score="10.565879322366916">
								<SimplePredicate field="double(temp)" operator="lessOrEqual" value="19.156081688899356"/>
								<Node score="4.0">
									<SimplePredicate field="double(temp)" operator="lessOrEqual" value="18.74845198337932"/>
								</Node>
								<Node score="7.207392357589623">
									<SimplePredicate field="double(temp)" operator="lessOrEqual" value="18.915820388225406"/>
									<Node score="7.0">
										<SimplePredicate field="double(temp)" operator="lessOrEqual" value="18.884771962482617"/>
									</Node>
								</Node>
								<Node score="8.706640488004599">
									<SimplePredicate field="double(temp)" operator="lessOrEqual" value="19.06144325239707"/>
								</Node>
							</Node>
							<Node score="5.0">
								<SimplePredicate field="double(temp)" operator="lessOrEqual" value="20.942840751179915"/>
								<Node score="9.0">
									<SimplePredicate field="double(temp)" operator="lessOrEqual" value="20.040239009184944"/>
									<Node score="10.706640488004599">
										<SimplePredicate field="double(temp)" operator="lessOrEqual" value="19.567444606796716"/>
										<Node score="11.023664553973461">
											<SimplePredicate field="double(temp)" operator="lessOrEqual" value="19.331705866588468"/>
											<Node score="10.706640488004599">
												<SimplePredicate field="double(temp)" operator="lessOrEqual" value="19.297406943860913"/>
											</Node>
										</Node>
										<Node score="9.851655907139286">
											<SimplePredicate field="double(temp)" operator="lessOrEqual" value="19.456251426771892"/>
										</Node>
									</Node>
									<Node score="11.941419697609339">
										<SimplePredicate field="double(temp)" operator="lessOrEqual" value="19.872373627150168"/>
										<Node score="11.296251627913692">
											<SimplePredicate field="double(temp)" operator="lessOrEqual" value="19.65193337364852"/>
										</Node>
									</Node>
									<Node score="11.023664553973461">
										<SimplePredicate field="double(temp)" operator="lessOrEqual" value="19.943630378444425"/>
									</Node>
								</Node>
							</Node>
							<Node score="5.0">
								<SimplePredicate field="double(temp)" operator="lessOrEqual" value="21.408432582178015"/>
							</Node>
							<Node score="9.706640488004599">
								<SimplePredicate field="double(temp)" operator="lessOrEqual" value="21.616749780255212"/>
								<Node score="9.706640488004599">
									<SimplePredicate field="double(temp)" operator="lessOrEqual" value="21.56581233465038"/>
								</Node>
							</Node>
							<Node score="8.207392357589622">
								<SimplePredicate field="double(temp)" operator="lessOrEqual" value="21.70440152184951"/>
							</Node>
						</Node>
						<Node score="4.0">
							<SimplePredicate field="double(temp)" operator="lessOrEqual" value="27.568498221254938"/>
							<Node score="8.0">
								<SimplePredicate field="double(temp)" operator="lessOrEqual" value="26.622991585744344"/>
								<Node score="6.0">
									<SimplePredicate field="double(temp)" operator="lessOrEqual" value="24.260777588709164"/>
									<Node score="11.427187187583282">
										<SimplePredicate field="double(temp)" operator="lessOrEqual" value="22.686344502453007"/>
										<Node score="11.53553663538496">
											<SimplePredicate field="double(temp)" operator="lessOrEqual" value="22.373041878995036"/>
											<Node score="11.296251627913692">
												<SimplePredicate field="double(temp)" operator="lessOrEqual" value="22.091584364802415"/>
												<Node score="9.207392357589622">
													<SimplePredicate field="double(temp)" operator="lessOrEqual" value="21.985952618396954"/>
												</Node>
											</Node>
											<Node score="12.817255833106158">
												<SimplePredicate field="double(temp)" operator="lessOrEqual" value="22.254077635725004"/>
											</Node>
										</Node>
										<Node score="9.851655907139286">
											<SimplePredicate field="double(temp)" operator="lessOrEqual" value="22.539894219372464"/>
											<Node score="9.207392357589622">
												<SimplePredicate field="double(temp)" operator="lessOrEqual" value="22.448172413594186"/>
											</Node>
										</Node>
									</Node>
									<Node score="9.851655907139286">
										<SimplePredicate field="double(temp)" operator="lessOrEqual" value="24.147567092183774"/>
										<Node score="11.023664553973461">
											<SimplePredicate field="double(temp)" operator="lessOrEqual" value="23.22021390382253"/>
											<Node score="12.116888542066473">
												<SimplePredicate field="double(temp)" operator="lessOrEqual" value="23.068720886189826"/>
											</Node>
										</Node>
										<Node score="11.748880484475505">
											<SimplePredicate field="double(temp)" operator="lessOrEqual" value="23.761079043705177"/>
										</Node>
									</Node>
								</Node>
								<Node score="7.207392357589623">
									<SimplePredicate field="double(temp)" operator="lessOrEqual" value="24.6737386264476"/>
									<Node score="7.0">
										<SimplePredicate field="double(temp)" operator="lessOrEqual" value="24.30575133330503"/>
									</Node>
								</Node>
								<Node score="9.851655907139286">
									<SimplePredicate field="double(temp)" operator="lessOrEqual" value="25.751669689415124"/>
									<Node score="11.023664553973461">
										<SimplePredicate field="double(temp)" operator="lessOrEqual" value="25.372755260054372"/>
										<Node score="8.0">
											<SimplePredicate field="double(temp)" operator="lessOrEqual" value="24.8736147274298"/>
										</Node>
									</Node>
									<Node score="9.851655907139286">
										<SimplePredicate field="double(temp)" operator="lessOrEqual" value="25.564137502236548"/>
									</Node>
								</Node>
								<Node score="10.327020052042847">
									<SimplePredicate field="double(temp)" operator="lessOrEqual" value="26.329899498839016"/>
									<Node score="10.706640488004599">
										<SimplePredicate field="double(temp)" operator="lessOrEqual" value="26.013361236950473"/>
									</Node>
								</Node>
								<Node score="9.207392357589622">
									<SimplePredicate field="double(temp)" operator="lessOrEqual" value="26.527108702995235"/>
								</Node>
							</Node>
							<Node score="5.0">
								<SimplePredicate field="double(temp)" operator="lessOrEqual" value="27.18827158495401"/>
								<Node score="6.0">
									<SimplePredicate field="double(temp)" operator="lessOrEqual" value="27.065765132792116"/>
								</Node>
							</Node>
						</Node>
						<Node score="8.0">
							<SimplePredicate field="double(temp)" operator="lessOrEqual" value="29.921775018480503"/>
							<Node score="6.0">
								<SimplePredicate field="double(temp)" operator="lessOrEqual" value="28.257655153286457"/>
								<Node score="7.0">
									<SimplePredicate field="double(temp)" operator="lessOrEqual" value="28.01394806652803"/>
									<Node score="7.0">
										<SimplePredicate field="double(temp)" operator="lessOrEqual" value="27.744050249797123"/>
									</Node>
								</Node>
							</Node>
							<Node score="8.0">
								<SimplePredicate field="double(temp)" operator="lessOrEqual" value="29.300383269712118"/>
								<Node score="7.0">
									<SimplePredicate field="double(temp)" operator="lessOrEqual" value="28.471020134957243"/>
								</Node>
								<Node score="7.0">
									<SimplePredicate field="double(temp)" operator="lessOrEqual" value="28.621856373872756"/>
								</Node>
								<Node score="9.0">
									<SimplePredicate field="double(temp)" operator="lessOrEqual" value="28.92960896044577"/>
								</Node>
							</Node>
							<Node score="7.0">
								<SimplePredicate field="double(temp)" operator="lessOrEqual" value="29.49496412060279"/>
							</Node>
							<Node score="8.0">
								<SimplePredicate field="double(temp)" operator="lessOrEqual" value="29.570704067068274"/>
							</Node>
						</Node>
					</Node>
				</TreeModel>
			</Segment>
			<Segment id="2">
				<True/>
				<TreeModel functionName="regression" missingValueStrategy="nullPrediction" noTrueChildStrategy="returnLastPrediction">
					<MiningSchema>
						<MiningField name="double(temp)"/>
					</MiningSchema>
					<Node score="2.0">
						<True/>
						<Node score="4.0">
							<SimplePredicate field="double(temp)" operator="lessOrEqual" value="30.38907291950164"/>
							<Node score="6.851655907139285">
								<SimplePredicate field="double(temp)" operator="lessOrEqual" value="24.801604548858137"/>
								<Node score="11.023664553973461">
									<SimplePredicate field="double(temp)" operator="lessOrEqual" value="22.06743019942666"/>
									<Node score="8.023664553973461">
										<SimplePredicate field="double(temp)" operator="lessOrEqual" value="19.058062940270442"/>
										<Node score="8.327020052042847">
											<SimplePredicate field="double(temp)" operator="lessOrEqual" value="18.93986680975561"/>
											<Node score="8.0">
												<SimplePredicate field="double(temp)" operator="lessOrEqual" value="18.85464376736923"/>
												<Node score="8.851655907139286">
													<SimplePredicate field="double(temp)" operator="lessOrEqual" value="18.745688065812598"/>
												</Node>
											</Node>
										</Node>
									</Node>
									<Node score="10.706640488004599">
										<SimplePredicate field="double(temp)" operator="lessOrEqual" value="19.926079526670712"/>
										<Node score="8.327020052042847">
											<SimplePredicate field="double(temp)" operator="lessOrEqual" value="19.195150241827616"/>
										</Node>
										<Node score="10.706640488004599">
											<SimplePredicate field="double(temp)" operator="lessOrEqual" value="19.372518571739153"/>
											<Node score="9.207392357589622">
												<SimplePredicate field="double(temp)" operator="lessOrEqual" value="19.245566943851376"/>
											</Node>
										</Node>
										<Node score="13.508753094994699">
											<SimplePredicate field="double(temp)" operator="lessOrEqual" value="19.706787662956298"/>
										</Node>
									</Node>
									<Node score="7.0">
										<SimplePredicate field="double(temp)" operator="lessOrEqual" value="21.34909136482554"/>
									</Node>
									<Node score="10.327020052042847">
										<SimplePredicate field="double(temp)" operator="lessOrEqual" value="21.632019859280803"/>
										<Node score="9.0">
											<SimplePredicate field="double(temp)" operator="lessOrEqual" value="21.47344239108001"/>
										</Node>
									</Node>
									<Node score="12.817255833106158">
										<SimplePredicate field="double(temp)" operator="lessOrEqual" value="21.984749476505982"/>
									</Node>
								</Node>
								<Node score="7.0">
									<SimplePredicate field="double(temp)" operator="lessOrEqual" value="24.59003491713866"/>
									<Node score="9.941419697609339">
										<SimplePredicate field="double(temp)" operator="lessOrEqual" value="22.200180259861725"/>
										<Node score="9.296251627913692">
											<SimplePredicate field="double(temp)" operator="lessOrEqual" value="22.13148463114606"/>
										</Node>
									</Node>
									<Node score="10.327020052042847">
										<SimplePredicate field="double(temp)" operator="lessOrEqual" value="23.567162242232676"/>
										<Node score="15.094654616022526">
											<SimplePredicate field="double(temp)" operator="lessOrEqual" value="23.105625134684527"/>
											<Node score="13.508753094994699">
												<SimplePredicate field="double(temp)" operator="lessOrEqual" value="22.450339371894753"/>
											</Node>
										</Node>
										<Node score="9.0">
											<SimplePredicate field="double(temp)" operator="lessOrEqual" value="23.20269319396391"/>
										</Node>
									</Node>
									<Node score="9.851655907139286">
										<SimplePredicate field="double(temp)" operator="lessOrEqual" value="24.452661322542184"/>
										<Node score="11.023664553973461">
											<SimplePredicate field="double(temp)" operator="lessOrEqual" value="23.90732880817391"/>
										</Node>
									</Node>
								</Node>
								<Node score="7.207392357589623">
									<SimplePredicate field="double(temp)" operator="lessOrEqual" value="24.71892740285738"/>
									<Node score="7.0">
										<SimplePredicate field="double(temp)" operator="lessOrEqual" value="24.64278411438027"/>
									</Node>
								</Node>
							</Node>
							<Node score="6.0">
								<SimplePredicate field="double(temp)" operator="lessOrEqual" value="28.548914144341072"/>
								<Node score="4.0">
									<SimplePredicate field="double(temp)" operator="lessOrEqual" value="25.029075074255967"/>
								</Node>
								<Node score="5.0">
									<SimplePredicate field="double(temp)" operator="lessOrEqual" value="25.25222589134929"/>
								</Node>
								<Node score="11.941419697609339">
									<SimplePredicate field="double(temp)" operator="lessOrEqual" value="28.329980804771672"/>
									<Node score="11.941419697609339">
										<SimplePredicate field="double(temp)" operator="lessOrEqual" value="26.38000364571145"/>
										<Node score="8.0">
											<SimplePredicate field="double(temp)" operator="lessOrEqual" value="25.443563421997617"/>
										</Node>
									</Node>
									<Node score="9.207392357589622">
										<SimplePredicate field="double(temp)" operator="lessOrEqual" value="26.93572094065845"/>
									</Node>
								</Node>
							</Node>
							<Node score="7.0">
								<SimplePredicate field="double(temp)" operator="lessOrEqual" value="29.876809455177966"/>
								<Node score="6.0">
									<SimplePredicate field="double(temp)" operator="lessOrEqual" value="29.12407862546584"/>
								</Node>
								<Node score="6.0">
									<SimplePredicate field="double(temp)" operator="lessOrEqual" value="29.310975976163558"/>
								</Node>
							</Node>
						</Node>
					</Node>
				</TreeModel>
			</Segment>
			<Segment id="3">
				<True/>
				<TreeModel functionName="regression" missingValueStrategy="nullPrediction" noTrueChildStrategy="returnLastPrediction">
					<MiningSchema>
						<MiningField name="double(temp)"/>
					</MiningSchema>
					<Node score="2.0">
						<True/>
						<Node score="6.207392357589623">
							<SimplePredicate field="double(temp)" operator="lessOrEqual" value="29.64317078475232"/>
							<Node score="5.0">
								<SimplePredicate field="double(temp)" operator="lessOrEqual" value="24.37116758002488"/>
								<Node score="9.0">
									<SimplePredicate field="double(temp)" operator="lessOrEqual" value="23.292247478613845"/>
									<Node score="10.327020052042847">
										<SimplePredicate field="double(temp)" operator="lessOrEqual" value="20.820185957572537"/>
										<Node score="9.327020052042847">
											<SimplePredicate field="double(temp)" operator="lessOrEqual" value="18.967419242195245"/>
											<Node score="7.0">
												<SimplePredicate field="double(temp)" operator="lessOrEqual" value="18.69165216267549"/>
											</Node>
											<Node score="7.0">
												<SimplePredicate field="double(temp)" operator="lessOrEqual" value="18.881723979938897"/>
											</Node>
										</Node>
										<Node score="10.327020052042847">
											<SimplePredicate field="double(temp)" operator="lessOrEqual" value="19.67279925088994"/>
											<Node score="12.565879322366916">
												<SimplePredicate field="double(temp)" operator="lessOrEqual" value="19.438250065406454"/>
												<Node score="12.817255833106158">
													<SimplePredicate field="double(temp)" operator="lessOrEqual" value="19.15757257090837"/>
												</Node>
											</Node>
											<Node score="9.851655907139286">
												<SimplePredicate field="double(temp)" operator="lessOrEqual" value="19.549399219558698"/>
											</Node>
										</Node>
										<Node score="9.851655907139286">
											<SimplePredicate field="double(temp)" operator="lessOrEqual" value="19.878296099670955"/>
											<Node score="11.023664553973461">
												<SimplePredicate field="double(temp)" operator="lessOrEqual" value="19.7466441438594"/>
											</Node>
										</Node>
										<Node score="10.327020052042847">
											<SimplePredicate field="double(temp)" operator="lessOrEqual" value="19.9789982014489"/>
										</Node>
									</Node>
									<Node score="10.706640488004599">
										<SimplePredicate field="double(temp)" operator="lessOrEqual" value="22.034163096544948"/>
										<Node score="7.0">
											<SimplePredicate field="double(temp)" operator="lessOrEqual" value="21.40734995890833"/>
										</Node>
										<Node score="10.023664553973461">
											<SimplePredicate field="double(temp)" operator="lessOrEqual" value="21.55725185203238"/>
										</Node>
										<Node score="12.27809078322522">
											<SimplePredicate field="double(temp)" operator="lessOrEqual" value="21.827363291470185"/>
										</Node>
									</Node>
									<Node score="11.023664553973461">
										<SimplePredicate field="double(temp)" operator="lessOrEqual" value="22.532162522792344"/>
										<Node score="13.334385296159002">
											<SimplePredicate field="double(temp)" operator="lessOrEqual" value="22.30411760479754"/>
											<Node score="11.023664553973461">
												<SimplePredicate field="double(temp)" operator="lessOrEqual" value="22.18626353241438"/>
											</Node>
										</Node>
										<Node score="9.207392357589622">
											<SimplePredicate field="double(temp)" operator="lessOrEqual" value="22.435623219312657"/>
										</Node>
									</Node>
									<Node score="11.296251627913692">
										<SimplePredicate field="double(temp)" operator="lessOrEqual" value="22.775994986047568"/>
										<Node score="11.53553663538496">
											<SimplePredicate field="double(temp)" operator="lessOrEqual" value="22.634116828634863"/>
										</Node>
									</Node>
									<Node score="13.423472758258828">
										<SimplePredicate field="double(temp)" operator="lessOrEqual" value="23.112639094818654"/>
									</Node>
								</Node>
								<Node score="8.851655907139286">
									<SimplePredicate field="double(temp)" operator="lessOrEqual" value="23.761490139859493"/>
									<Node score="7.0">
										<SimplePredicate field="double(temp)" operator="lessOrEqual" value="23.472208222235942"/>
										<Node score="6.0">
											<SimplePredicate field="double(temp)" operator="lessOrEqual" value="23.38983432306724"/>
										</Node>
									</Node>
									<Node score="7.0">
										<SimplePredicate field="double(temp)" operator="lessOrEqual" value="23.58854687989774"/>
									</Node>
									<Node score="7.0">
										<SimplePredicate field="double(temp)" operator="lessOrEqual" value="23.61438450172946"/>
									</Node>
								</Node>
								<Node score="7.0">
									<SimplePredicate field="double(temp)" operator="lessOrEqual" value="24.255273178943586"/>
									<Node score="7.0">
										<SimplePredicate field="double(temp)" operator="lessOrEqual" value="24.011312945413685"/>
										<Node score="8.0">
											<SimplePredicate field="double(temp)" operator="lessOrEqual" value="23.981819522030612"/>
										</Node>
									</Node>
								</Node>
							</Node>
							<Node score="7.0">
								<SimplePredicate field="double(temp)" operator="lessOrEqual" value="26.88015044439506"/>
								<Node score="7.0">
									<SimplePredicate field="double(temp)" operator="lessOrEqual" value="24.635943428660017"/>
									<Node score="6.207392357589623">
										<SimplePredicate field="double(temp)" operator="lessOrEqual" value="24.49904004616436"/>
									</Node>
									<Node score="7.0">
										<SimplePredicate field="double(temp)" operator="lessOrEqual" value="24.526373531053547"/>
									</Node>
								</Node>
								<Node score="8.0">
									<SimplePredicate field="double(temp)" operator="lessOrEqual" value="25.88507431144131"/>
									<Node score="9.207392357589622">
										<SimplePredicate field="double(temp)" operator="lessOrEqual" value="25.312321809824706"/>
										<Node score="8.0">
											<SimplePredicate field="double(temp)" operator="lessOrEqual" value="25.09803338455876"/>
										</Node>
										<Node score="8.0">
											<SimplePredicate field="double(temp)" operator="lessOrEqual" value="25.122444930869268"/>
										</Node>
									</Node>
									<Node score="9.0">
										<SimplePredicate field="double(temp)" operator="lessOrEqual" value="25.657074688662618"/>
										<Node score="8.0">
											<SimplePredicate field="double(temp)" operator="lessOrEqual" value="25.58063646725009"/>
										</Node>
									</Node>
									<Node score="9.0">
										<SimplePredicate field="double(temp)" operator="lessOrEqual" value="25.788197853277364"/>
									</Node>
								</Node>
								<Node score="11.53553663538496">
									<SimplePredicate field="double(temp)" operator="lessOrEqual" value="26.754000454453347"/>
									<Node score="9.0">
										<SimplePredicate field="double(temp)" operator="lessOrEqual" value="26.327249877219167"/>
										<Node score="8.0">
											<SimplePredicate field="double(temp)" operator="lessOrEqual" value="25.912959839674965"/>
										</Node>
									</Node>
									<Node score="8.0">
										<SimplePredicate field="double(temp)" operator="lessOrEqual" value="26.460540794959275"/>
									</Node>
								</Node>
							</Node>
							<Node score="6.0">
								<SimplePredicate field="double(temp)" operator="lessOrEqual" value="29.32430564531091"/>
								<Node score="8.0">
									<SimplePredicate field="double(temp)" operator="lessOrEqual" value="28.953144774917895"/>
									<Node score="10.327020052042847">
										<SimplePredicate field="double(temp)" operator="lessOrEqual" value="27.916111360177112"/>
										<Node score="9.851655907139286">
											<SimplePredicate field="double(temp)" operator="lessOrEqual" value="27.49449589433761"/>
											<Node score="8.0">
												<SimplePredicate field="double(temp)" operator="lessOrEqual" value="27.072843528701476"/>
											</Node>
										</Node>
										<Node score="8.0">
											<SimplePredicate field="double(temp)" operator="lessOrEqual" value="27.715607495673474"/>
										</Node>
									</Node>
									<Node score="8.0">
										<SimplePredicate field="double(temp)" operator="lessOrEqual" value="28.793847963443326"/>
									</Node>
									<Node score="9.207392357589622">
										<SimplePredicate field="double(temp)" operator="lessOrEqual" value="28.8952428391333"/>
									</Node>
								</Node>
								<Node score="7.0">
									<SimplePredicate field="double(temp)" operator="lessOrEqual" value="29.003087941417196"/>
								</Node>
							</Node>
							<Node score="5.0">
								<SimplePredicate field="double(temp)" operator="lessOrEqual" value="29.585953254118714"/>
							</Node>
						</Node>
						<Node score="3.0">
							<SimplePredicate field="double(temp)" operator="lessOrEqual" value="30.359947730822785"/>
						</Node>
					</Node>
				</TreeModel>
			</Segment>
			<Segment id="4">
				<True/>
				<TreeModel functionName="regression" missingValueStrategy="nullPrediction" noTrueChildStrategy="returnLastPrediction">
					<MiningSchema>
						<MiningField name="double(temp)"/>
					</MiningSchema>
					<Node score="5.0">
						<True/>
						<Node score="8.0">
							<SimplePredicate field="double(temp)" operator="lessOrEqual" value="20.515400759158"/>
							<Node score="3.0">
								<SimplePredicate field="double(temp)" operator="lessOrEqual" value="18.719726517266974"/>
								<Node score="4.0">
									<SimplePredicate field="double(temp)" operator="lessOrEqual" value="18.68574448423402"/>
								</Node>
							</Node>
							<Node score="6.7066404880045996">
								<SimplePredicate field="double(temp)" operator="lessOrEqual" value="19.075973972432894"/>
								<Node score="6.0">
									<SimplePredicate field="double(temp)" operator="lessOrEqual" value="18.974780378014046"/>
									<Node score="6.851655907139285">
										<SimplePredicate field="double(temp)" operator="lessOrEqual" value="18.8013769668004"/>
									</Node>
								</Node>
							</Node>
							<Node score="9.023664553973461">
								<SimplePredicate field="double(temp)" operator="lessOrEqual" value="19.30689157722045"/>
								<Node score="7.7066404880045996">
									<SimplePredicate field="double(temp)" operator="lessOrEqual" value="19.133294975248624"/>
								</Node>
								<Node score="8.706640488004599">
									<SimplePredicate field="double(temp)" operator="lessOrEqual" value="19.23442840091529"/>
								</Node>
							</Node>
							<Node score="7.851655907139285">
								<SimplePredicate field="double(temp)" operator="lessOrEqual" value="19.59795267706257"/>
								<Node score="8.706640488004599">
									<SimplePredicate field="double(temp)" operator="lessOrEqual" value="19.48256865888162"/>
								</Node>
							</Node>
							<Node score="10.296251627913692">
								<SimplePredicate field="double(temp)" operator="lessOrEqual" value="19.72761449644978"/>
								<Node score="10.296251627913692">
									<SimplePredicate field="double(temp)" operator="lessOrEqual" value="19.624209079165524"/>
								</Node>
							</Node>
							<Node score="8.207392357589622">
								<SimplePredicate field="double(temp)" operator="lessOrEqual" value="19.851958113861016"/>
							</Node>
							<Node score="9.851655907139286">
								<SimplePredicate field="double(temp)" operator="lessOrEqual" value="19.950168155892406"/>
							</Node>
						</Node>
						<Node score="3.0">
							<SimplePredicate field="double(temp)" operator="lessOrEqual" value="27.957858412299387"/>
							<Node score="7.0">
								<SimplePredicate field="double(temp)" operator="lessOrEqual" value="27.458434992459978"/>
								<Node score="10.327020052042847">
									<SimplePredicate field="double(temp)" operator="lessOrEqual" value="26.480201203972193"/>
									<Node score="10.023664553973461">
										<SimplePredicate field="double(temp)" operator="lessOrEqual" value="23.072171498395168"/>
										<Node score="15.342839550947838">
											<SimplePredicate field="double(temp)" operator="lessOrEqual" value="22.640012993993388"/>
											<Node score="8.207392357589622">
												<SimplePredicate field="double(temp)" operator="lessOrEqual" value="21.272953078143956"/>
											</Node>
											<Node score="14.206269982147791">
												<SimplePredicate field="double(temp)" operator="lessOrEqual" value="22.026539357854745"/>
											</Node>
										</Node>
										<Node score="10.327020052042847">
											<SimplePredicate field="double(temp)" operator="lessOrEqual" value="22.99821387084801"/>
											<Node score="11.296251627913692">
												<SimplePredicate field="double(temp)" operator="lessOrEqual" value="22.8452848573607"/>
											</Node>
										</Node>
									</Node>
									<Node score="11.53553663538496">
										<SimplePredicate field="double(temp)" operator="lessOrEqual" value="23.887300405420678"/>
										<Node score="9.327020052042847">
											<SimplePredicate field="double(temp)" operator="lessOrEqual" value="23.10504207271354"/>
										</Node>
										<Node score="9.0">
											<SimplePredicate field="double(temp)" operator="lessOrEqual" value="23.35915945970372"/>
										</Node>
									</Node>
									<Node score="9.851655907139286">
										<SimplePredicate field="double(temp)" operator="lessOrEqual" value="24.956871369647267"/>
										<Node score="11.53553663538496">
											<SimplePredicate field="double(temp)" operator="lessOrEqual" value="24.501459398121323"/>
										</Node>
									</Node>
									<Node score="12.817255833106158">
										<SimplePredicate field="double(temp)" operator="lessOrEqual" value="25.905673258359215"/>
									</Node>
								</Node>
								<Node score="6.0">
									<SimplePredicate field="double(temp)" operator="lessOrEqual" value="26.74213465061163"/>
								</Node>
								<Node score="8.851655907139286">
									<SimplePredicate field="double(temp)" operator="lessOrEqual" value="27.002209768399858"/>
									<Node score="8.0">
										<SimplePredicate field="double(temp)" operator="lessOrEqual" value="26.823737533337958"/>
									</Node>
								</Node>
							</Node>
						</Node>
						<Node score="5.0">
							<SimplePredicate field="double(temp)" operator="lessOrEqual" value="28.943719445934388"/>
							<Node score="5.0">
								<SimplePredicate field="double(temp)" operator="lessOrEqual" value="28.34287938878234"/>
							</Node>
						</Node>
						<Node score="6.0">
							<SimplePredicate field="double(temp)" operator="lessOrEqual" value="29.825301180155417"/>
							<Node score="5.0">
								<SimplePredicate field="double(temp)" operator="lessOrEqual" value="29.43070022162473"/>
							</Node>
						</Node>
					</Node>
				</TreeModel>
			</Segment>
			<Segment id="5">
				<True/>
				<TreeModel functionName="regression" missingValueStrategy="nullPrediction" noTrueChildStrategy="returnLastPrediction">
					<MiningSchema>
						<MiningField name="double(temp)"/>
					</MiningSchema>
					<Node score="3.0">
						<True/>
						<Node score="10.327020052042847">
							<SimplePredicate field="double(temp)" operator="lessOrEqual" value="22.974208569690695"/>
							<Node score="5.0">
								<SimplePredicate field="double(temp)" operator="lessOrEqual" value="19.88776312857872"/>
								<Node score="9.023664553973461">
									<SimplePredicate field="double(temp)" operator="lessOrEqual" value="19.663648226815642"/>
									<Node score="5.0">
										<SimplePredicate field="double(temp)" operator="lessOrEqual" value="18.776532753918566"/>
									</Node>
									<Node score="6.0">
										<SimplePredicate field="double(temp)" operator="lessOrEqual" value="18.883756622199936"/>
									</Node>
									<Node score="9.327020052042847">
										<SimplePredicate field="double(temp)" operator="lessOrEqual" value="19.573699708848803"/>
										<Node score="9.851655907139286">
											<SimplePredicate field="double(temp)" operator="lessOrEqual" value="19.484734060494997"/>
											<Node score="13.744698479920103">
												<SimplePredicate field="double(temp)" operator="lessOrEqual" value="19.210769846015967"/>
											</Node>
										</Node>
									</Node>
								</Node>
								<Node score="6.7066404880045996">
									<SimplePredicate field="double(temp)" operator="lessOrEqual" value="19.785371074047095"/>
								</Node>
							</Node>
							<Node score="5.207392357589623">
								<SimplePredicate field="double(temp)" operator="lessOrEqual" value="20.85204345311599"/>
								<Node score="7.296251627913692">
									<SimplePredicate field="double(temp)" operator="lessOrEqual" value="19.93643852222841"/>
								</Node>
							</Node>
							<Node score="9.296251627913692">
								<SimplePredicate field="double(temp)" operator="lessOrEqual" value="21.887625620199415"/>
								<Node score="7.0">
									<SimplePredicate field="double(temp)" operator="lessOrEqual" value="21.46942043252059"/>
									<Node score="7.0">
										<SimplePredicate field="double(temp)" operator="lessOrEqual" value="21.253322312415637"/>
									</Node>
								</Node>
								<Node score="9.851655907139286">
									<SimplePredicate field="double(temp)" operator="lessOrEqual" value="21.767243383805422"/>
									<Node score="8.0">
										<SimplePredicate field="double(temp)" operator="lessOrEqual" value="21.50801511391419"/>
									</Node>
									<Node score="9.851655907139286">
										<SimplePredicate field="double(temp)" operator="lessOrEqual" value="21.61586229706005"/>
									</Node>
								</Node>
							</Node>
							<Node score="8.023664553973461">
								<SimplePredicate field="double(temp)" operator="lessOrEqual" value="21.93753328734894"/>
							</Node>
							<Node score="10.53553663538496">
								<SimplePredicate field="double(temp)" operator="lessOrEqual" value="22.314934461076962"/>
								<Node score="13.143309288135946">
									<SimplePredicate field="double(temp)" operator="lessOrEqual" value="22.2161668278063"/>
									<Node score="11.296251627913692">
										<SimplePredicate field="double(temp)" operator="lessOrEqual" value="22.09848564662497"/>
									</Node>
								</Node>
							</Node>
							<Node score="12.116888542066473">
								<SimplePredicate field="double(temp)" operator="lessOrEqual" value="22.788759128371606"/>
								<Node score="13.744698479920103">
									<SimplePredicate field="double(temp)" operator="lessOrEqual" value="22.68735389187214"/>
								</Node>
							</Node>
							<Node score="9.851655907139286">
								<SimplePredicate field="double(temp)" operator="lessOrEqual" value="22.888804138347403"/>
							</Node>
						</Node>
						<Node score="5.0">
							<SimplePredicate field="double(temp)" operator="lessOrEqual" value="29.21747926399926"/>
							<Node score="9.0">
								<SimplePredicate field="double(temp)" operator="lessOrEqual" value="27.975238903203085"/>
								<Node score="6.0">
									<SimplePredicate field="double(temp)" operator="lessOrEqual" value="24.292472583200848"/>
									<Node score="8.0">
										<SimplePredicate field="double(temp)" operator="lessOrEqual" value="23.489112395068783"/>
										<Node score="8.327020052042847">
											<SimplePredicate field="double(temp)" operator="lessOrEqual" value="23.024995513919656"/>
										</Node>
										<Node score="9.0">
											<SimplePredicate field="double(temp)" operator="lessOrEqual" value="23.21007245617764"/>
											<Node score="8.0">
												<SimplePredicate field="double(temp)" operator="lessOrEqual" value="23.100504642413647"/>
											</Node>
										</Node>
									</Node>
									<Node score="9.0">
										<SimplePredicate field="double(temp)" operator="lessOrEqual" value="24.063608196547072"/>
										<Node score="9.207392357589622">
											<SimplePredicate field="double(temp)" operator="lessOrEqual" value="23.721546645273715"/>
											<Node score="8.0">
												<SimplePredicate field="double(temp)" operator="lessOrEqual" value="23.697999574665133"/>
											</Node>
										</Node>
										<Node score="9.207392357589622">
											<SimplePredicate field="double(temp)" operator="lessOrEqual" value="23.9639157172584"/>
										</Node>
									</Node>
								</Node>
								<Node score="7.0">
									<SimplePredicate field="double(temp)" operator="lessOrEqual" value="25.221456490314036"/>
									<Node score="7.0">
										<SimplePredicate field="double(temp)" operator="lessOrEqual" value="24.591478099162817"/>
									</Node>
									<Node score="8.0">
										<SimplePredicate field="double(temp)" operator="lessOrEqual" value="25.099064316087897"/>
									</Node>
								</Node>
								<Node score="8.0">
									<SimplePredicate field="double(temp)" operator="lessOrEqual" value="25.867197574333847"/>
									<Node score="9.851655907139286">
										<SimplePredicate field="double(temp)" operator="lessOrEqual" value="25.692665944859133"/>
										<Node score="10.327020052042847">
											<SimplePredicate field="double(temp)" operator="lessOrEqual" value="25.441490044784622"/>
										</Node>
									</Node>
								</Node>
								<Node score="11.748880484475505">
									<SimplePredicate field="double(temp)" operator="lessOrEqual" value="26.957583402775967"/>
									<Node score="10.327020052042847">
										<SimplePredicate field="double(temp)" operator="lessOrEqual" value="26.121976279291314"/>
									</Node>
								</Node>
								<Node score="11.023664553973461">
									<SimplePredicate field="double(temp)" operator="lessOrEqual" value="27.38593042367293"/>
								</Node>
							</Node>
							<Node score="6.0">
								<SimplePredicate field="double(temp)" operator="lessOrEqual" value="28.600915677217113"/>
								<Node score="6.0">
									<SimplePredicate field="double(temp)" operator="lessOrEqual" value="28.3267221603667"/>
								</Node>
							</Node>
							<Node score="6.0">
								<SimplePredicate field="double(temp)" operator="lessOrEqual" value="29.154602363450607"/>
								<Node score="7.0">
									<SimplePredicate field="double(temp)" operator="lessOrEqual" value="29.08251234522139"/>
									<Node score="8.207392357589622">
										<SimplePredicate field="double(temp)" operator="lessOrEqual" value="28.95998216179903"/>
									</Node>
								</Node>
							</Node>
						</Node>
						<Node score="5.0">
							<SimplePredicate field="double(temp)" operator="lessOrEqual" value="30.424080046817863"/>
							<Node score="5.207392357589623">
								<SimplePredicate field="double(temp)" operator="lessOrEqual" value="29.58533868598078"/>
							</Node>
						</Node>
					</Node>
				</TreeModel>
			</Segment>
			<Segment id="6">
				<True/>
				<TreeModel functionName="regression" missingValueStrategy="nullPrediction" noTrueChildStrategy="returnLastPrediction">
					<MiningSchema>
						<MiningField name="double(temp)"/>
					</MiningSchema>
					<Node score="3.0">
						<True/>
						<Node score="9.0">
							<SimplePredicate field="double(temp)" operator="lessOrEqual" value="28.4391809742286"/>
							<Node score="5.0">
								<SimplePredicate field="double(temp)" operator="lessOrEqual" value="20.235657436081386"/>
								<Node score="9.327020052042847">
									<SimplePredicate field="double(temp)" operator="lessOrEqual" value="19.99154713915824"/>
									<Node score="9.327020052042847">
										<SimplePredicate field="double(temp)" operator="lessOrEqual" value="19.437403665027674"/>
										<Node score="10.706640488004599">
											<SimplePredicate field="double(temp)" operator="lessOrEqual" value="19.10983317840187"/>
											<Node score="6.0">
												<SimplePredicate field="double(temp)" operator="lessOrEqual" value="18.72258192120162"/>
											</Node>
											<Node score="8.0">
												<SimplePredicate field="double(temp)" operator="lessOrEqual" value="18.943671530998596"/>
												<Node score="10.327020052042847">
													<SimplePredicate field="double(temp)" operator="lessOrEqual" value="18.874924002474295"/>
												</Node>
											</Node>
											<Node score="9.851655907139286">
												<SimplePredicate field="double(temp)" operator="lessOrEqual" value="19.040187544820505"/>
											</Node>
										</Node>
										<Node score="9.941419697609339">
											<SimplePredicate field="double(temp)" operator="lessOrEqual" value="19.22323570899227"/>
										</Node>
										<Node score="8.851655907139286">
											<SimplePredicate field="double(temp)" operator="lessOrEqual" value="19.303667207784752"/>
										</Node>
									</Node>
									<Node score="7.207392357589623">
										<SimplePredicate field="double(temp)" operator="lessOrEqual" value="19.637982541671708"/>
										<Node score="9.296251627913692">
											<SimplePredicate field="double(temp)" operator="lessOrEqual" value="19.591341685903995"/>
										</Node>
									</Node>
									<Node score="9.53553663538496">
										<SimplePredicate field="double(temp)" operator="lessOrEqual" value="19.703630571346864"/>
									</Node>
									<Node score="10.023664553973461">
										<SimplePredicate field="double(temp)" operator="lessOrEqual" value="19.844416803825524"/>
									</Node>
								</Node>
								<Node score="4.0">
									<SimplePredicate field="double(temp)" operator="lessOrEqual" value="20.00783931693401"/>
								</Node>
							</Node>
							<Node score="9.327020052042847">
								<SimplePredicate field="double(temp)" operator="lessOrEqual" value="25.616143049119973"/>
								<Node score="12.817255833106158">
									<SimplePredicate field="double(temp)" operator="lessOrEqual" value="23.148852278121087"/>
									<Node score="10.53553663538496">
										<SimplePredicate field="double(temp)" operator="lessOrEqual" value="21.667045519178384"/>
										<Node score="8.851655907139286">
											<SimplePredicate field="double(temp)" operator="lessOrEqual" value="21.472715081579757"/>
											<Node score="7.0">
												<SimplePredicate field="double(temp)" operator="lessOrEqual" value="21.339559307142355"/>
											</Node>
										</Node>
										<Node score="8.0">
											<SimplePredicate field="double(temp)" operator="lessOrEqual" value="21.506577864471932"/>
										</Node>
									</Node>
									<Node score="7.851655907139285">
										<SimplePredicate field="double(temp)" operator="lessOrEqual" value="21.73155713089116"/>
									</Node>
									<Node score="12.427187187583282">
										<SimplePredicate field="double(temp)" operator="lessOrEqual" value="22.527089180499992"/>
										<Node score="14.767255042084033">
											<SimplePredicate field="double(temp)" operator="lessOrEqual" value="22.319117718120886"/>
										</Node>
									</Node>
									<Node score="13.04043800349013">
										<SimplePredicate field="double(temp)" operator="lessOrEqual" value="22.798450163890816"/>
									</Node>
								</Node>
								<Node score="7.851655907139285">
									<SimplePredicate field="double(temp)" operator="lessOrEqual" value="23.72895006089513"/>
									<Node score="8.0">
										<SimplePredicate field="double(temp)" operator="lessOrEqual" value="23.642827300095384"/>
										<Node score="7.0">
											<SimplePredicate field="double(temp)" operator="lessOrEqual" value="23.337845077473865"/>
										</Node>
										<Node score="10.706640488004599">
											<SimplePredicate field="double(temp)" operator="lessOrEqual" value="23.545686048178172"/>
										</Node>
									</Node>
								</Node>
								<Node score="10.327020052042847">
									<SimplePredicate field="double(temp)" operator="lessOrEqual" value="24.538491388794874"/>
									<Node score="8.207392357589622">
										<SimplePredicate field="double(temp)" operator="lessOrEqual" value="23.828929972056766"/>
									</Node>
									<Node score="9.207392357589622">
										<SimplePredicate field="double(temp)" operator="lessOrEqual" value="24.040651219962466"/>
									</Node>
								</Node>
								<Node score="9.0">
									<SimplePredicate field="double(temp)" operator="lessOrEqual" value="25.41934821094356"/>
									<Node score="9.0">
										<SimplePredicate field="double(temp)" operator="lessOrEqual" value="25.087011959350832"/>
									</Node>
								</Node>
							</Node>
							<Node score="5.0">
								<SimplePredicate field="double(temp)" operator="lessOrEqual" value="27.563910762281925"/>
								<Node score="10.327020052042847">
									<SimplePredicate field="double(temp)" operator="lessOrEqual" value="27.301228862969534"/>
									<Node score="9.851655907139286">
										<SimplePredicate field="double(temp)" operator="lessOrEqual" value="26.22788269627774"/>
										<Node score="7.0">
											<SimplePredicate field="double(temp)" operator="lessOrEqual" value="25.83022989820636"/>
										</Node>
										<Node score="9.0">
											<SimplePredicate field="double(temp)" operator="lessOrEqual" value="25.954477515879883"/>
										</Node>
									</Node>
									<Node score="9.0">
										<SimplePredicate field="double(temp)" operator="lessOrEqual" value="26.641603718131528"/>
										<Node score="9.0">
											<SimplePredicate field="double(temp)" operator="lessOrEqual" value="26.348815474263347"/>
										</Node>
									</Node>
									<Node score="9.207392357589622">
										<SimplePredicate field="double(temp)" operator="lessOrEqual" value="26.71655749530371"/>
									</Node>
								</Node>
							</Node>
							<Node score="5.0">
								<SimplePredicate field="double(temp)" operator="lessOrEqual" value="27.613131701722818"/>
							</Node>
							<Node score="6.0">
								<SimplePredicate field="double(temp)" operator="lessOrEqual" value="27.863297840155166"/>
							</Node>
							<Node score="8.0">
								<SimplePredicate field="double(temp)" operator="lessOrEqual" value="28.207338461828307"/>
								<Node score="9.207392357589622">
									<SimplePredicate field="double(temp)" operator="lessOrEqual" value="28.051361505874997"/>
								</Node>
							</Node>
							<Node score="9.0">
								<SimplePredicate field="double(temp)" operator="lessOrEqual" value="28.35970109381501"/>
							</Node>
						</Node>
						<Node score="4.0">
							<SimplePredicate field="double(temp)" operator="lessOrEqual" value="29.233714086936708"/>
							<Node score="4.0">
								<SimplePredicate field="double(temp)" operator="lessOrEqual" value="28.99191155449097"/>
								<Node score="5.0">
									<SimplePredicate field="double(temp)" operator="lessOrEqual" value="28.899840005483615"/>
								</Node>
							</Node>
						</Node>
					</Node>
				</TreeModel>
			</Segment>
			<Segment id="7">
				<True/>
				<TreeModel functionName="regression" missingValueStrategy="nullPrediction" noTrueChildStrategy="returnLastPrediction">
					<MiningSchema>
						<MiningField name="double(temp)"/>
					</MiningSchema>
					<Node score="4.0">
						<True/>
						<Node score="6.0">
							<SimplePredicate field="double(temp)" operator="lessOrEqual" value="27.47547682313038"/>
							<Node score="6.207392357589623">
								<SimplePredicate field="double(temp)" operator="lessOrEqual" value="19.414635177056603"/>
								<Node score="10.565879322366916">
									<SimplePredicate field="double(temp)" operator="lessOrEqual" value="19.135924534492958"/>
									<Node score="5.0">
										<SimplePredicate field="double(temp)" operator="lessOrEqual" value="18.897612484983302"/>
									</Node>
									<Node score="6.851655907139285">
										<SimplePredicate field="double(temp)" operator="lessOrEqual" value="18.954710860013726"/>
									</Node>
									<Node score="9.53553663538496">
										<SimplePredicate field="double(temp)" operator="lessOrEqual" value="19.090940573426558"/>
									</Node>
								</Node>
								<Node score="5.851655907139285">
									<SimplePredicate field="double(temp)" operator="lessOrEqual" value="19.250175681662395"/>
								</Node>
								<Node score="6.851655907139285">
									<SimplePredicate field="double(temp)" operator="lessOrEqual" value="19.391741559534324"/>
								</Node>
							</Node>
							<Node score="12.116888542066473">
								<SimplePredicate field="double(temp)" operator="lessOrEqual" value="22.260837371201884"/>
								<Node score="8.706640488004599">
									<SimplePredicate field="double(temp)" operator="lessOrEqual" value="19.85911984456624"/>
									<Node score="6.851655907139285">
										<SimplePredicate field="double(temp)" operator="lessOrEqual" value="19.51147263667333"/>
									</Node>
									<Node score="10.023664553973461">
										<SimplePredicate field="double(temp)" operator="lessOrEqual" value="19.77294102966138"/>
										<Node score="9.706640488004599">
											<SimplePredicate field="double(temp)" operator="lessOrEqual" value="19.688407114061338"/>
										</Node>
									</Node>
								</Node>
								<Node score="9.851655907139286">
									<SimplePredicate field="double(temp)" operator="lessOrEqual" value="21.41828987307084"/>
									<Node score="8.0">
										<SimplePredicate field="double(temp)" operator="lessOrEqual" value="20.285083915751933"/>
										<Node score="8.0">
											<SimplePredicate field="double(temp)" operator="lessOrEqual" value="20.04795772136008"/>
											<Node score="9.207392357589622">
												<SimplePredicate field="double(temp)" operator="lessOrEqual" value="19.914794966819617"/>
											</Node>
										</Node>
									</Node>
									<Node score="7.0">
										<SimplePredicate field="double(temp)" operator="lessOrEqual" value="21.247940420404085"/>
									</Node>
									<Node score="8.0">
										<SimplePredicate field="double(temp)" operator="lessOrEqual" value="21.31439734132179"/>
									</Node>
								</Node>
								<Node score="9.023664553973461">
									<SimplePredicate field="double(temp)" operator="lessOrEqual" value="21.583092653316992"/>
								</Node>
								<Node score="11.023664553973461">
									<SimplePredicate field="double(temp)" operator="lessOrEqual" value="21.706273537131242"/>
									<Node score="9.851655907139286">
										<SimplePredicate field="double(temp)" operator="lessOrEqual" value="21.63709806368693"/>
									</Node>
								</Node>
								<Node score="13.95568965644268">
									<SimplePredicate field="double(temp)" operator="lessOrEqual" value="22.104996212399886"/>
								</Node>
							</Node>
							<Node score="11.748880484475505">
								<SimplePredicate field="double(temp)" operator="lessOrEqual" value="26.736424077039782"/>
								<Node score="8.207392357589622">
									<SimplePredicate field="double(temp)" operator="lessOrEqual" value="23.620000004004794"/>
									<Node score="9.0">
										<SimplePredicate field="double(temp)" operator="lessOrEqual" value="23.155611421658246"/>
										<Node score="10.706640488004599">
											<SimplePredicate field="double(temp)" operator="lessOrEqual" value="22.98008975438549"/>
											<Node score="14.320683008337449">
												<SimplePredicate field="double(temp)" operator="lessOrEqual" value="22.705115021636175"/>
											</Node>
										</Node>
										<Node score="11.296251627913692">
											<SimplePredicate field="double(temp)" operator="lessOrEqual" value="23.008381979527556"/>
										</Node>
									</Node>
									<Node score="8.0">
										<SimplePredicate field="double(temp)" operator="lessOrEqual" value="23.356164267849195"/>
									</Node>
								</Node>
								<Node score="7.0">
									<SimplePredicate field="double(temp)" operator="lessOrEqual" value="24.32033696520158"/>
									<Node score="9.0">
										<SimplePredicate field="double(temp)" operator="lessOrEqual" value="23.855615269650524"/>
										<Node score="9.207392357589622">
											<SimplePredicate field="double(temp)" operator="lessOrEqual" value="23.72026435831219"/>
										</Node>
									</Node>
								</Node>
								<Node score="8.0">
									<SimplePredicate field="double(temp)" operator="lessOrEqual" value="25.068324917921835"/>
									<Node score="11.748880484475505">
										<SimplePredicate field="double(temp)" operator="lessOrEqual" value="24.930262757332876"/>
									</Node>
								</Node>
								<Node score="11.296251627913692">
									<SimplePredicate field="double(temp)" operator="lessOrEqual" value="25.509377215993716"/>
								</Node>
							</Node>
							<Node score="6.0">
								<SimplePredicate field="double(temp)" operator="lessOrEqual" value="27.04694833664547"/>
								<Node score="7.851655907139285">
									<SimplePredicate field="double(temp)" operator="lessOrEqual" value="26.875467221861165"/>
								</Node>
							</Node>
						</Node>
						<Node score="4.0">
							<SimplePredicate field="double(temp)" operator="lessOrEqual" value="29.173347174248626"/>
							<Node score="5.0">
								<SimplePredicate field="double(temp)" operator="lessOrEqual" value="28.194224059672198"/>
								<Node score="4.0">
									<SimplePredicate field="double(temp)" operator="lessOrEqual" value="27.641594002322105"/>
								</Node>
								<Node score="7.0">
									<SimplePredicate field="double(temp)" operator="lessOrEqual" value="27.995852016106106"/>
									<Node score="6.0">
										<SimplePredicate field="double(temp)" operator="lessOrEqual" value="27.803680519182528"/>
									</Node>
								</Node>
							</Node>
							<Node score="7.0">
								<SimplePredicate field="double(temp)" operator="lessOrEqual" value="28.84867720872073"/>
								<Node score="7.0">
									<SimplePredicate field="double(temp)" operator="lessOrEqual" value="28.398929334803917"/>
									<Node score="7.0">
										<SimplePredicate field="double(temp)" operator="lessOrEqual" value="28.22191442616472"/>
									</Node>
								</Node>
								<Node score="8.207392357589622">
									<SimplePredicate field="double(temp)" operator="lessOrEqual" value="28.54381808056504"/>
									<Node score="7.0">
										<SimplePredicate field="double(temp)" operator="lessOrEqual" value="28.450616821229996"/>
									</Node>
								</Node>
							</Node>
						</Node>
						<Node score="5.0">
							<SimplePredicate field="double(temp)" operator="lessOrEqual" value="30.177492384785676"/>
							<Node score="4.0">
								<SimplePredicate field="double(temp)" operator="lessOrEqual" value="29.80358102675694"/>
							</Node>
						</Node>
					</Node>
				</TreeModel>
			</Segment>
			<Segment id="8">
				<True/>
				<TreeModel functionName="regression" missingValueStrategy="nullPrediction" noTrueChildStrategy="returnLastPrediction">
					<MiningSchema>
						<MiningField name="double(temp)"/>
					</MiningSchema>
					<Node score="2.0">
						<True/>
						<Node score="4.0">
							<SimplePredicate field="double(temp)" operator="lessOrEqual" value="30.043681787114444"/>
							<Node score="7.0">
								<SimplePredicate field="double(temp)" operator="lessOrEqual" value="26.984006514532496"/>
								<Node score="7.0">
									<SimplePredicate field="double(temp)" operator="lessOrEqual" value="21.479359625103346"/>
									<Node score="9.748880484475505">
										<SimplePredicate field="double(temp)" operator="lessOrEqual" value="19.73761194706651"/>
										<Node score="10.327020052042847">
											<SimplePredicate field="double(temp)" operator="lessOrEqual" value="19.496857316251152"/>
											<Node score="8.207392357589622">
												<SimplePredicate field="double(temp)" operator="lessOrEqual" value="18.738448471993795"/>
												<Node score="7.0">
													<SimplePredicate field="double(temp)" operator="lessOrEqual" value="18.599221667004755"/>
												</Node>
											</Node>
											<Node score="8.0">
												<SimplePredicate field="double(temp)" operator="lessOrEqual" value="18.99230289456934"/>
												<Node score="9.207392357589622">
													<SimplePredicate field="double(temp)" operator="lessOrEqual" value="18.885259634319585"/>
												</Node>
											</Node>
											<Node score="13.423472758258828">
												<SimplePredicate field="double(temp)" operator="lessOrEqual" value="19.32092906081005"/>
											</Node>
										</Node>
										<Node score="10.023664553973461">
											<SimplePredicate field="double(temp)" operator="lessOrEqual" value="19.62187738369107"/>
											<Node score="9.327020052042847">
												<SimplePredicate field="double(temp)" operator="lessOrEqual" value="19.532077755970903"/>
											</Node>
										</Node>
									</Node>
									<Node score="6.207392357589623">
										<SimplePredicate field="double(temp)" operator="lessOrEqual" value="19.800208171183147"/>
									</Node>
									<Node score="8.706640488004599">
										<SimplePredicate field="double(temp)" operator="lessOrEqual" value="19.973682781720466"/>
									</Node>
								</Node>
								<Node score="11.53553663538496">
									<SimplePredicate field="double(temp)" operator="lessOrEqual" value="25.789621146180743"/>
									<Node score="11.023664553973461">
										<SimplePredicate field="double(temp)" operator="lessOrEqual" value="22.110995516719946"/>
										<Node score="7.0">
											<SimplePredicate field="double(temp)" operator="lessOrEqual" value="21.59262881733559"/>
										</Node>
										<Node score="12.427187187583282">
											<SimplePredicate field="double(temp)" operator="lessOrEqual" value="21.933643242499624"/>
											<Node score="13.04043800349013">
												<SimplePredicate field="double(temp)" operator="lessOrEqual" value="21.722407902782983"/>
											</Node>
										</Node>
										<Node score="10.327020052042847">
											<SimplePredicate field="double(temp)" operator="lessOrEqual" value="22.015819993388238"/>
										</Node>
									</Node>
									<Node score="8.207392357589622">
										<SimplePredicate field="double(temp)" operator="lessOrEqual" value="24.3706560687491"/>
										<Node score="13.04043800349013">
											<SimplePredicate field="double(temp)" operator="lessOrEqual" value="24.069678148194065"/>
											<Node score="15.50296672729164">
												<SimplePredicate field="double(temp)" operator="lessOrEqual" value="23.039420703814194"/>
											</Node>
										</Node>
									</Node>
									<Node score="9.0">
										<SimplePredicate field="double(temp)" operator="lessOrEqual" value="24.879596844807033"/>
										<Node score="9.0">
											<SimplePredicate field="double(temp)" operator="lessOrEqual" value="24.624996283127413"/>
										</Node>
									</Node>
									<Node score="9.0">
										<SimplePredicate field="double(temp)" operator="lessOrEqual" value="25.171219462834944"/>
									</Node>
								</Node>
								<Node score="7.0">
									<SimplePredicate field="double(temp)" operator="lessOrEqual" value="26.608544106061455"/>
									<Node score="8.0">
										<SimplePredicate field="double(temp)" operator="lessOrEqual" value="26.219863048043827"/>
										<Node score="9.207392357589622">
											<SimplePredicate field="double(temp)" operator="lessOrEqual" value="26.135594073086047"/>
											<Node score="10.327020052042847">
												<SimplePredicate field="double(temp)" operator="lessOrEqual" value="26.09786268695534"/>
											</Node>
										</Node>
									</Node>
									<Node score="8.0">
										<SimplePredicate field="double(temp)" operator="lessOrEqual" value="26.338249813013604"/>
									</Node>
								</Node>
								<Node score="8.327020052042847">
									<SimplePredicate field="double(temp)" operator="lessOrEqual" value="26.762283886281253"/>
								</Node>
							</Node>
							<Node score="5.0">
								<SimplePredicate field="double(temp)" operator="lessOrEqual" value="28.20297658080374"/>
								<Node score="6.851655907139285">
									<SimplePredicate field="double(temp)" operator="lessOrEqual" value="28.04097881760595"/>
									<Node score="7.0">
										<SimplePredicate field="double(temp)" operator="lessOrEqual" value="27.284680330035652"/>
										<Node score="7.0">
											<SimplePredicate field="double(temp)" operator="lessOrEqual" value="27.020906510616832"/>
										</Node>
									</Node>
								</Node>
							</Node>
							<Node score="7.0">
								<SimplePredicate field="double(temp)" operator="lessOrEqual" value="29.44437236809962"/>
								<Node score="5.0">
									<SimplePredicate field="double(temp)" operator="lessOrEqual" value="28.646250020361624"/>
								</Node>
								<Node score="6.0">
									<SimplePredicate field="double(temp)" operator="lessOrEqual" value="28.974803084246894"/>
								</Node>
							</Node>
						</Node>
						<Node score="3.0">
							<SimplePredicate field="double(temp)" operator="lessOrEqual" value="30.442278531452622"/>
						</Node>
					</Node>
				</TreeModel>
			</Segment>
			<Segment id="9">
				<True/>
				<TreeModel functionName="regression" missingValueStrategy="nullPrediction" noTrueChildStrategy="returnLastPrediction">
					<MiningSchema>
						<MiningField name="double(temp)"/>
					</MiningSchema>
					<Node score="3.0">
						<True/>
						<Node score="3.0">
							<SimplePredicate field="double(temp)" operator="lessOrEqual" value="21.158047405776774"/>
							<Node score="2.0">
								<SimplePredicate field="double(temp)" operator="lessOrEqual" value="18.61239838379452"/>
							</Node>
							<Node score="5.851655907139285">
								<SimplePredicate field="double(temp)" operator="lessOrEqual" value="20.00064209850479"/>
								<Node score="8.0">
									<SimplePredicate field="double(temp)" operator="lessOrEqual" value="19.983467871285534"/>
									<Node score="5.0">
										<SimplePredicate field="double(temp)" operator="lessOrEqual" value="18.87950058382168"/>
									</Node>
									<Node score="6.0">
										<SimplePredicate field="double(temp)" operator="lessOrEqual" value="18.96548258376563"/>
									</Node>
									<Node score="13.590538990498956">
										<SimplePredicate field="double(temp)" operator="lessOrEqual" value="19.66848374446829"/>
										<Node score="13.817533633240295">
											<SimplePredicate field="double(temp)" operator="lessOrEqual" value="19.250321617453615"/>
										</Node>
									</Node>
									<Node score="12.116888542066473">
										<SimplePredicate field="double(temp)" operator="lessOrEqual" value="19.8768445308824"/>
									</Node>
								</Node>
							</Node>
						</Node>
						<Node score="8.0">
							<SimplePredicate field="double(temp)" operator="lessOrEqual" value="29.73696082338732"/>
							<Node score="8.27809078322522">
								<SimplePredicate field="double(temp)" operator="lessOrEqual" value="22.13108391911742"/>
								<Node score="12.27809078322522">
									<SimplePredicate field="double(temp)" operator="lessOrEqual" value="22.023639692131518"/>
									<Node score="6.851655907139285">
										<SimplePredicate field="double(temp)" operator="lessOrEqual" value="21.410371428714758"/>
									</Node>
									<Node score="10.53553663538496">
										<SimplePredicate field="double(temp)" operator="lessOrEqual" value="21.653113027174545"/>
										<Node score="8.207392357589622">
											<SimplePredicate field="double(temp)" operator="lessOrEqual" value="21.530409119762933"/>
										</Node>
									</Node>
									<Node score="10.023664553973461">
										<SimplePredicate field="double(temp)" operator="lessOrEqual" value="21.74646101398901"/>
									</Node>
									<Node score="9.851655907139286">
										<SimplePredicate field="double(temp)" operator="lessOrEqual" value="21.844156454773017"/>
									</Node>
								</Node>
							</Node>
							<Node score="8.0">
								<SimplePredicate field="double(temp)" operator="lessOrEqual" value="24.858242451643235"/>
								<Node score="12.27809078322522">
									<SimplePredicate field="double(temp)" operator="lessOrEqual" value="23.09118413697022"/>
									<Node score="11.296251627913692">
										<SimplePredicate field="double(temp)" operator="lessOrEqual" value="22.60976191108028"/>
										<Node score="11.023664553973461">
											<SimplePredicate field="double(temp)" operator="lessOrEqual" value="22.30819090983577"/>
											<Node score="11.941419697609339">
												<SimplePredicate field="double(temp)" operator="lessOrEqual" value="22.205804975242575"/>
											</Node>
										</Node>
										<Node score="12.817255833106158">
											<SimplePredicate field="double(temp)" operator="lessOrEqual" value="22.588003799930394"/>
										</Node>
									</Node>
									<Node score="9.327020052042847">
										<SimplePredicate field="double(temp)" operator="lessOrEqual" value="22.71113302577938"/>
									</Node>
									<Node score="10.706640488004599">
										<SimplePredicate field="double(temp)" operator="lessOrEqual" value="22.857462961319133"/>
									</Node>
								</Node>
								<Node score="8.0">
									<SimplePredicate field="double(temp)" operator="lessOrEqual" value="23.99734861538622"/>
									<Node score="12.116888542066473">
										<SimplePredicate field="double(temp)" operator="lessOrEqual" value="23.72001486179845"/>
										<Node score="9.207392357589622">
											<SimplePredicate field="double(temp)" operator="lessOrEqual" value="23.216460812615075"/>
										</Node>
									</Node>
								</Node>
								<Node score="9.851655907139286">
									<SimplePredicate field="double(temp)" operator="lessOrEqual" value="24.371184272766637"/>
									<Node score="8.0">
										<SimplePredicate field="double(temp)" operator="lessOrEqual" value="24.06874680716565"/>
									</Node>
								</Node>
								<Node score="9.0">
									<SimplePredicate field="double(temp)" operator="lessOrEqual" value="24.50678299086766"/>
								</Node>
							</Node>
							<Node score="8.0">
								<SimplePredicate field="double(temp)" operator="lessOrEqual" value="27.932273107239897"/>
								<Node score="8.207392357589622">
									<SimplePredicate field="double(temp)" operator="lessOrEqual" value="26.014728244828124"/>
									<Node score="11.296251627913692">
										<SimplePredicate field="double(temp)" operator="lessOrEqual" value="25.94931569506848"/>
										<Node score="9.0">
											<SimplePredicate field="double(temp)" operator="lessOrEqual" value="25.11123187630816"/>
										</Node>
									</Node>
								</Node>
								<Node score="11.023664553973461">
									<SimplePredicate field="double(temp)" operator="lessOrEqual" value="27.290066308663256"/>
									<Node score="8.0">
										<SimplePredicate field="double(temp)" operator="lessOrEqual" value="26.114137860828027"/>
									</Node>
								</Node>
								<Node score="9.0">
									<SimplePredicate field="double(temp)" operator="lessOrEqual" value="27.579017108531996"/>
								</Node>
							</Node>
							<Node score="8.0">
								<SimplePredicate field="double(temp)" operator="lessOrEqual" value="28.249683088470242"/>
								<Node score="9.0">
									<SimplePredicate field="double(temp)" operator="lessOrEqual" value="28.131071035499172"/>
									<Node score="8.0">
										<SimplePredicate field="double(temp)" operator="lessOrEqual" value="28.041825859517772"/>
									</Node>
								</Node>
							</Node>
							<Node score="9.207392357589622">
								<SimplePredicate field="double(temp)" operator="lessOrEqual" value="29.119182241867698"/>
								<Node score="8.0">
									<SimplePredicate field="double(temp)" operator="lessOrEqual" value="28.67572332350304"/>
								</Node>
							</Node>
						</Node>
					</Node>
				</TreeModel>
			</Segment>
			<Segment id="10">
				<True/>
				<TreeModel functionName="regression" missingValueStrategy="nullPrediction" noTrueChildStrategy="returnLastPrediction">
					<MiningSchema>
						<MiningField name="double(temp)"/>
					</MiningSchema>
					<Node score="5.0">
						<True/>
						<Node score="6.7066404880045996">
							<SimplePredicate field="double(temp)" operator="lessOrEqual" value="19.775252803170705"/>
							<Node score="2.0">
								<SimplePredicate field="double(temp)" operator="lessOrEqual" value="18.924323741881143"/>
							</Node>
							<Node score="6.851655907139285">
								<SimplePredicate field="double(temp)" operator="lessOrEqual" value="19.51507605914309"/>
								<Node score="7.851655907139285">
									<SimplePredicate field="double(temp)" operator="lessOrEqual" value="19.253305593157794"/>
									<Node score="7.3270200520428475">
										<SimplePredicate field="double(temp)" operator="lessOrEqual" value="19.044855066526754"/>
									</Node>
									<Node score="10.27809078322522">
										<SimplePredicate field="double(temp)" operator="lessOrEqual" value="19.156081513953843"/>
									</Node>
								</Node>
								<Node score="7.207392357589623">
									<SimplePredicate field="double(temp)" operator="lessOrEqual" value="19.410690059739373"/>
									<Node score="9.748880484475505">
										<SimplePredicate field="double(temp)" operator="lessOrEqual" value="19.33152144768298"/>
									</Node>
								</Node>
							</Node>
							<Node score="7.023664553973461">
								<SimplePredicate field="double(temp)" operator="lessOrEqual" value="19.61510164641039"/>
							</Node>
						</Node>
						<Node score="6.0">
							<SimplePredicate field="double(temp)" operator="lessOrEqual" value="26.39206849381682"/>
							<Node score="7.3270200520428475">
								<SimplePredicate field="double(temp)" operator="lessOrEqual" value="23.01430892418805"/>
								<Node score="9.851655907139286">
									<SimplePredicate field="double(temp)" operator="lessOrEqual" value="22.790915965260897"/>
									<Node score="8.207392357589622">
										<SimplePredicate field="double(temp)" operator="lessOrEqual" value="21.43362531606921"/>
										<Node score="7.0">
											<SimplePredicate field="double(temp)" operator="lessOrEqual" value="21.166054338955366"/>
											<Node score="11.023664553973461">
												<SimplePredicate field="double(temp)" operator="lessOrEqual" value="20.09487361889174"/>
												<Node score="9.207392357589622">
													<SimplePredicate field="double(temp)" operator="lessOrEqual" value="19.844379528801117"/>
												</Node>
											</Node>
										</Node>
										<Node score="9.207392357589622">
											<SimplePredicate field="double(temp)" operator="lessOrEqual" value="21.395895077024022"/>
											<Node score="9.0">
												<SimplePredicate field="double(temp)" operator="lessOrEqual" value="21.210609969712245"/>
											</Node>
										</Node>
									</Node>
									<Node score="12.116888542066473">
										<SimplePredicate field="double(temp)" operator="lessOrEqual" value="22.301782804868125"/>
										<Node score="13.04043800349013">
											<SimplePredicate field="double(temp)" operator="lessOrEqual" value="21.999775730892132"/>
											<Node score="11.023664553973461">
												<SimplePredicate field="double(temp)" operator="lessOrEqual" value="21.671316773870135"/>
											</Node>
										</Node>
										<Node score="12.931969129026609">
											<SimplePredicate field="double(temp)" operator="lessOrEqual" value="22.16170321160197"/>
										</Node>
									</Node>
									<Node score="11.748880484475505">
										<SimplePredicate field="double(temp)" operator="lessOrEqual" value="22.566305136464493"/>
										<Node score="9.851655907139286">
											<SimplePredicate field="double(temp)" operator="lessOrEqual" value="22.42016333728131"/>
										</Node>
									</Node>
									<Node score="9.851655907139286">
										<SimplePredicate field="double(temp)" operator="lessOrEqual" value="22.683761226315976"/>
									</Node>
								</Node>
								<Node score="8.327020052042847">
									<SimplePredicate field="double(temp)" operator="lessOrEqual" value="22.911922071213034"/>
									<Node score="7.851655907139285">
										<SimplePredicate field="double(temp)" operator="lessOrEqual" value="22.867021468473155"/>
									</Node>
								</Node>
							</Node>
							<Node score="8.0">
								<SimplePredicate field="double(temp)" operator="lessOrEqual" value="23.832966003294647"/>
								<Node score="6.0">
									<SimplePredicate field="double(temp)" operator="lessOrEqual" value="23.47866221929382"/>
									<Node score="8.207392357589622">
										<SimplePredicate field="double(temp)" operator="lessOrEqual" value="23.22906843877565"/>
										<Node score="8.0">
											<SimplePredicate field="double(temp)" operator="lessOrEqual" value="23.12332657604049"/>
										</Node>
									</Node>
								</Node>
								<Node score="8.207392357589622">
									<SimplePredicate field="double(temp)" operator="lessOrEqual" value="23.645440426955357"/>
									<Node score="8.0">
										<SimplePredicate field="double(temp)" operator="lessOrEqual" value="23.569620980276966"/>
									</Node>
								</Node>
								<Node score="8.0">
									<SimplePredicate field="double(temp)" operator="lessOrEqual" value="23.792265657386775"/>
								</Node>
							</Node>
							<Node score="12.116888542066473">
								<SimplePredicate field="double(temp)" operator="lessOrEqual" value="26.23125692205285"/>
								<Node score="8.0">
									<SimplePredicate field="double(temp)" operator="lessOrEqual" value="24.709730962582327"/>
									<Node score="8.0">
										<SimplePredicate field="double(temp)" operator="lessOrEqual" value="24.598216670014864"/>
										<Node score="11.296251627913692">
											<SimplePredicate field="double(temp)" operator="lessOrEqual" value="24.374884408735905"/>
										</Node>
									</Node>
									<Node score="9.207392357589622">
										<SimplePredicate field="double(temp)" operator="lessOrEqual" value="24.650827172828052"/>
									</Node>
								</Node>
								<Node score="11.941419697609339">
									<SimplePredicate field="double(temp)" operator="lessOrEqual" value="25.605209345778405"/>
									<Node score="9.0">
										<SimplePredicate field="double(temp)" operator="lessOrEqual" value="25.096894438258737"/>
									</Node>
								</Node>
								<Node score="10.327020052042847">
									<SimplePredicate field="double(temp)" operator="lessOrEqual" value="25.91785369194944"/>
								</Node>
							</Node>
						</Node>
						<Node score="6.0">
							<SimplePredicate field="double(temp)" operator="lessOrEqual" value="29.073484551009482"/>
							<Node score="7.0">
								<SimplePredicate field="double(temp)" operator="lessOrEqual" value="28.387674717757758"/>
								<Node score="8.0">
									<SimplePredicate field="double(temp)" operator="lessOrEqual" value="27.19761143122004"/>
									<Node score="6.0">
										<SimplePredicate field="double(temp)" operator="lessOrEqual" value="26.408923706596887"/>
									</Node>
									<Node score="9.207392357589622">
										<SimplePredicate field="double(temp)" operator="lessOrEqual" value="26.827362920011666"/>
										<Node score="11.023664553973461">
											<SimplePredicate field="double(temp)" operator="lessOrEqual" value="26.711745070106534"/>
										</Node>
									</Node>
									<Node score="9.0">
										<SimplePredicate field="double(temp)" operator="lessOrEqual" value="27.06760862870858"/>
									</Node>
								</Node>
								<Node score="9.0">
									<SimplePredicate field="double(temp)" operator="lessOrEqual" value="28.009573653717325"/>
									<Node score="8.0">
										<SimplePredicate field="double(temp)" operator="lessOrEqual" value="27.37051479487409"/>
									</Node>
									<Node score="9.851655907139286">
										<SimplePredicate field="double(temp)" operator="lessOrEqual" value="27.575513360986033"/>
									</Node>
								</Node>
								<Node score="8.207392357589622">
									<SimplePredicate field="double(temp)" operator="lessOrEqual" value="28.142222660233177"/>
								</Node>
							</Node>
							<Node score="5.0">
								<SimplePredicate field="double(temp)" operator="lessOrEqual" value="28.770395968732164"/>
							</Node>
						</Node>
						<Node score="4.0">
							<SimplePredicate field="double(temp)" operator="lessOrEqual" value="29.6208320380452"/>
						</Node>
					</Node>
				</TreeModel>
			</Segment>
			<Segment id="11">
				<True/>
				<TreeModel functionName="regression" missingValueStrategy="nullPrediction" noTrueChildStrategy="returnLastPrediction">
					<MiningSchema>
						<MiningField name="double(temp)"/>
					</MiningSchema>
					<Node score="3.0">
						<True/>
						<Node score="7.0">
							<SimplePredicate field="double(temp)" operator="lessOrEqual" value="24.27705063641426"/>
							<Node score="6.0">
								<SimplePredicate field="double(temp)" operator="lessOrEqual" value="21.51124144590373"/>
								<Node score="7.3270200520428475">
									<SimplePredicate field="double(temp)" operator="lessOrEqual" value="19.490120800490505"/>
									<Node score="12.116888542066473">
										<SimplePredicate field="double(temp)" operator="lessOrEqual" value="19.18074353372333"/>
										<Node score="6.0">
											<SimplePredicate field="double(temp)" operator="lessOrEqual" value="18.662013495696847"/>
											<Node score="7.0">
												<SimplePredicate field="double(temp)" operator="lessOrEqual" value="18.57776006985727"/>
											</Node>
										</Node>
										<Node score="7.0">
											<SimplePredicate field="double(temp)" operator="lessOrEqual" value="18.80574144998035"/>
										</Node>
										<Node score="8.851655907139286">
											<SimplePredicate field="double(temp)" operator="lessOrEqual" value="18.961878379327597"/>
										</Node>
										<Node score="10.327020052042847">
											<SimplePredicate field="double(temp)" operator="lessOrEqual" value="19.09588863631366"/>
										</Node>
									</Node>
									<Node score="9.296251627913692">
										<SimplePredicate field="double(temp)" operator="lessOrEqual" value="19.394073683867408"/>
										<Node score="9.53553663538496">
											<SimplePredicate field="double(temp)" operator="lessOrEqual" value="19.287299570504725"/>
										</Node>
									</Node>
								</Node>
								<Node score="5.0">
									<SimplePredicate field="double(temp)" operator="lessOrEqual" value="21.23440345592448"/>
									<Node score="7.0">
										<SimplePredicate field="double(temp)" operator="lessOrEqual" value="20.22595712897178"/>
										<Node score="8.0">
											<SimplePredicate field="double(temp)" operator="lessOrEqual" value="19.927577197983663"/>
											<Node score="12.565879322366916">
												<SimplePredicate field="double(temp)" operator="lessOrEqual" value="19.79935426647857"/>
												<Node score="10.706640488004599">
													<SimplePredicate field="double(temp)" operator="lessOrEqual" value="19.501520405363586"/>
												</Node>
											</Node>
										</Node>
									</Node>
								</Node>
								<Node score="5.0">
									<SimplePredicate field="double(temp)" operator="lessOrEqual" value="21.38834217027337"/>
								</Node>
							</Node>
							<Node score="8.0">
								<SimplePredicate field="double(temp)" operator="lessOrEqual" value="23.25707067519501"/>
								<Node score="10.748880484475505">
									<SimplePredicate field="double(temp)" operator="lessOrEqual" value="22.247169591112865"/>
									<Node score="8.327020052042847">
										<SimplePredicate field="double(temp)" operator="lessOrEqual" value="21.862780356986825"/>
										<Node score="10.023664553973461">
											<SimplePredicate field="double(temp)" operator="lessOrEqual" value="21.711062250460966"/>
											<Node score="9.327020052042847">
												<SimplePredicate field="double(temp)" operator="lessOrEqual" value="21.658914630619158"/>
											</Node>
										</Node>
									</Node>
									<Node score="9.023664553973461">
										<SimplePredicate field="double(temp)" operator="lessOrEqual" value="21.956473414268366"/>
									</Node>
									<Node score="11.941419697609339">
										<SimplePredicate field="double(temp)" operator="lessOrEqual" value="22.16358931915936"/>
										<Node score="12.116888542066473">
											<SimplePredicate field="double(temp)" operator="lessOrEqual" value="22.061100591810067"/>
										</Node>
									</Node>
								</Node>
								<Node score="9.53553663538496">
									<SimplePredicate field="double(temp)" operator="lessOrEqual" value="22.483568033173693"/>
									<Node score="10.27809078322522">
										<SimplePredicate field="double(temp)" operator="lessOrEqual" value="22.38122795615548"/>
									</Node>
								</Node>
								<Node score="12.427187187583282">
									<SimplePredicate field="double(temp)" operator="lessOrEqual" value="22.85174555435611"/>
									<Node score="9.706640488004599">
										<SimplePredicate field="double(temp)" operator="lessOrEqual" value="22.500275607870467"/>
									</Node>
									<Node score="11.748880484475505">
										<SimplePredicate field="double(temp)" operator="lessOrEqual" value="22.638958882221097"/>
									</Node>
								</Node>
								<Node score="9.0">
									<SimplePredicate field="double(temp)" operator="lessOrEqual" value="23.12132833676379"/>
									<Node score="11.941419697609339">
										<SimplePredicate field="double(temp)" operator="lessOrEqual" value="23.05838922182148"/>
									</Node>
								</Node>
							</Node>
							<Node score="6.851655907139285">
								<SimplePredicate field="double(temp)" operator="lessOrEqual" value="23.99038481530887"/>
								<Node score="9.207392357589622">
									<SimplePredicate field="double(temp)" operator="lessOrEqual" value="23.75754224078537"/>
									<Node score="6.0">
										<SimplePredicate field="double(temp)" operator="lessOrEqual" value="23.319766683668863"/>
									</Node>
									<Node score="7.0">
										<SimplePredicate field="double(temp)" operator="lessOrEqual" value="23.55949068265283"/>
									</Node>
									<Node score="10.327020052042847">
										<SimplePredicate field="double(temp)" operator="lessOrEqual" value="23.69060110789208"/>
									</Node>
								</Node>
							</Node>
							<Node score="5.0">
								<SimplePredicate field="double(temp)" operator="lessOrEqual" value="24.04492530891283"/>
							</Node>
							<Node score="7.0">
								<SimplePredicate field="double(temp)" operator="lessOrEqual" value="24.141119498707187"/>
							</Node>
						</Node>
						<Node score="4.0">
							<SimplePredicate field="double(temp)" operator="lessOrEqual" value="28.36196073108577"/>
							<Node score="5.0">
								<SimplePredicate field="double(temp)" operator="lessOrEqual" value="26.67285392271799"/>
								<Node score="5.0">
									<SimplePredicate field="double(temp)" operator="lessOrEqual" value="25.10797787050499"/>
									<Node score="6.0">
										<SimplePredicate field="double(temp)" operator="lessOrEqual" value="24.899729764042295"/>
										<Node score="8.0">
											<SimplePredicate field="double(temp)" operator="lessOrEqual" value="24.68747485483793"/>
											<Node score="7.0">
												<SimplePredicate field="double(temp)" operator="lessOrEqual" value="24.52821111205628"/>
											</Node>
										</Node>
									</Node>
								</Node>
								<Node score="8.0">
									<SimplePredicate field="double(temp)" operator="lessOrEqual" value="26.165391884725974"/>
									<Node score="7.0">
										<SimplePredicate field="double(temp)" operator="lessOrEqual" value="25.991074804948386"/>
										<Node score="9.207392357589622">
											<SimplePredicate field="double(temp)" operator="lessOrEqual" value="25.78453332672326"/>
											<Node score="8.0">
												<SimplePredicate field="double(temp)" operator="lessOrEqual" value="25.63759902396449"/>
											</Node>
										</Node>
									</Node>
									<Node score="8.0">
										<SimplePredicate field="double(temp)" operator="lessOrEqual" value="26.086262964294185"/>
									</Node>
								</Node>
							</Node>
							<Node score="7.0">
								<SimplePredicate field="double(temp)" operator="lessOrEqual" value="28.07360941740703"/>
								<Node score="6.0">
									<SimplePredicate field="double(temp)" operator="lessOrEqual" value="26.831033999516812"/>
									<Node score="7.0">
										<SimplePredicate field="double(temp)" operator="lessOrEqual" value="26.78144640183543"/>
									</Node>
								</Node>
								<Node score="8.207392357589622">
									<SimplePredicate field="double(temp)" operator="lessOrEqual" value="27.367989564963132"/>
									<Node score="9.0">
										<SimplePredicate field="double(temp)" operator="lessOrEqual" value="27.229363206863447"/>
										<Node score="9.207392357589622">
											<SimplePredicate field="double(temp)" operator="lessOrEqual" value="27.156548539547853"/>
										</Node>
									</Node>
								</Node>
							</Node>
						</Node>
						<Node score="6.0">
							<SimplePredicate field="double(temp)" operator="lessOrEqual" value="29.031824195382253"/>
							<Node score="5.207392357589623">
								<SimplePredicate field="double(temp)" operator="lessOrEqual" value="28.45884905976014"/>
							</Node>
							<Node score="5.0">
								<SimplePredicate field="double(temp)" operator="lessOrEqual" value="28.67649160993607"/>
							</Node>
						</Node>
					</Node>
				</TreeModel>
			</Segment>
			<Segment id="12">
				<True/>
				<TreeModel functionName="regression" missingValueStrategy="nullPrediction" noTrueChildStrategy="returnLastPrediction">
					<MiningSchema>
						<MiningField name="double(temp)"/>
					</MiningSchema>
					<Node score="7.0">
						<True/>
						<Node score="2.0">
							<SimplePredicate field="double(temp)" operator="lessOrEqual" value="27.035738613614654"/>
							<Node score="7.0">
								<SimplePredicate field="double(temp)" operator="lessOrEqual" value="26.896538822275474"/>
								<Node score="8.0">
									<SimplePredicate field="double(temp)" operator="lessOrEqual" value="25.81924297277704"/>
									<Node score="9.327020052042847">
										<SimplePredicate field="double(temp)" operator="lessOrEqual" value="23.94366800174114"/>
										<Node score="16.443120075493106">
											<SimplePredicate field="double(temp)" operator="lessOrEqual" value="22.56940084618097"/>
											<Node score="10.706640488004599">
												<SimplePredicate field="double(temp)" operator="lessOrEqual" value="19.200113361455767"/>
												<Node score="11.53553663538496">
													<SimplePredicate field="double(temp)" operator="lessOrEqual" value="19.072970626118114"/>
													<Node score="10.327020052042847">
														<SimplePredicate field="double(temp)" operator="lessOrEqual" value="18.804681792112643"/>
													</Node>
												</Node>
												<Node score="11.023664553973461">
													<SimplePredicate field="double(temp)" operator="lessOrEqual" value="19.18770180504537"/>
												</Node>
											</Node>
											<Node score="9.327020052042847">
												<SimplePredicate field="double(temp)" operator="lessOrEqual" value="19.375488847646007"/>
											</Node>
											<Node score="10.327020052042847">
												<SimplePredicate field="double(temp)" operator="lessOrEqual" value="19.449803257086693"/>
											</Node>
										</Node>
										<Node score="8.0">
											<SimplePredicate field="double(temp)" operator="lessOrEqual" value="23.10849877844736"/>
											<Node score="13.423472758258828">
												<SimplePredicate field="double(temp)" operator="lessOrEqual" value="22.9173478413454"/>
												<Node score="11.023664553973461">
													<SimplePredicate field="double(temp)" operator="lessOrEqual" value="22.646972056952464"/>
												</Node>
											</Node>
											<Node score="9.0">
												<SimplePredicate field="double(temp)" operator="lessOrEqual" value="23.0942544001729"/>
											</Node>
										</Node>
										<Node score="10.706640488004599">
											<SimplePredicate field="double(temp)" operator="lessOrEqual" value="23.877486020009798"/>
											<Node score="10.327020052042847">
												<SimplePredicate field="double(temp)" operator="lessOrEqual" value="23.481206980432013"/>
											</Node>
										</Node>
									</Node>
									<Node score="10.706640488004599">
										<SimplePredicate field="double(temp)" operator="lessOrEqual" value="25.196548749911983"/>
										<Node score="7.0">
											<SimplePredicate field="double(temp)" operator="lessOrEqual" value="24.122682086139612"/>
											<Node score="8.0">
												<SimplePredicate field="double(temp)" operator="lessOrEqual" value="24.013997566784557"/>
											</Node>
										</Node>
										<Node score="8.0">
											<SimplePredicate field="double(temp)" operator="lessOrEqual" value="24.418896283570326"/>
											<Node score="9.207392357589622">
												<SimplePredicate field="double(temp)" operator="lessOrEqual" value="24.344539597835936"/>
											</Node>
										</Node>
										<Node score="9.0">
											<SimplePredicate field="double(temp)" operator="lessOrEqual" value="24.72698889176468"/>
										</Node>
									</Node>
									<Node score="7.207392357589623">
										<SimplePredicate field="double(temp)" operator="lessOrEqual" value="25.38713598669353"/>
									</Node>
									<Node score="8.0">
										<SimplePredicate field="double(temp)" operator="lessOrEqual" value="25.628878074272237"/>
										<Node score="9.207392357589622">
											<SimplePredicate field="double(temp)" operator="lessOrEqual" value="25.53024530713393"/>
										</Node>
									</Node>
									<Node score="9.0">
										<SimplePredicate field="double(temp)" operator="lessOrEqual" value="25.74715043158421"/>
									</Node>
								</Node>
								<Node score="8.0">
									<SimplePredicate field="double(temp)" operator="lessOrEqual" value="26.4476942558883"/>
									<Node score="7.0">
										<SimplePredicate field="double(temp)" operator="lessOrEqual" value="26.070634035473052"/>
										<Node score="7.0">
											<SimplePredicate field="double(temp)" operator="lessOrEqual" value="25.90568333927847"/>
										</Node>
									</Node>
									<Node score="7.0">
										<SimplePredicate field="double(temp)" operator="lessOrEqual" value="26.147553810543272"/>
									</Node>
									<Node score="7.0">
										<SimplePredicate field="double(temp)" operator="lessOrEqual" value="26.393585775118126"/>
									</Node>
								</Node>
								<Node score="6.0">
									<SimplePredicate field="double(temp)" operator="lessOrEqual" value="26.694716172674863"/>
								</Node>
								<Node score="7.207392357589623">
									<SimplePredicate field="double(temp)" operator="lessOrEqual" value="26.7001111866821"/>
								</Node>
							</Node>
						</Node>
						<Node score="5.0">
							<SimplePredicate field="double(temp)" operator="lessOrEqual" value="28.039846083285422"/>
							<Node score="4.0">
								<SimplePredicate field="double(temp)" operator="lessOrEqual" value="27.22963555375967"/>
							</Node>
							<Node score="5.0">
								<SimplePredicate field="double(temp)" operator="lessOrEqual" value="27.446900532019203"/>
							</Node>
							<Node score="7.0">
								<SimplePredicate field="double(temp)" operator="lessOrEqual" value="27.791452908334016"/>
								<Node score="6.0">
									<SimplePredicate field="double(temp)" operator="lessOrEqual" value="27.61534155858205"/>
								</Node>
							</Node>
						</Node>
						<Node score="6.0">
							<SimplePredicate field="double(temp)" operator="lessOrEqual" value="29.07524465997322"/>
							<Node score="7.0">
								<SimplePredicate field="double(temp)" operator="lessOrEqual" value="28.78921238726604"/>
								<Node score="5.0">
									<SimplePredicate field="double(temp)" operator="lessOrEqual" value="28.146908043129336"/>
								</Node>
								<Node score="6.0">
									<SimplePredicate field="double(temp)" operator="lessOrEqual" value="28.379977560630024"/>
								</Node>
							</Node>
							<Node score="5.0">
								<SimplePredicate field="double(temp)" operator="lessOrEqual" value="28.862000647082745"/>
							</Node>
							<Node score="7.0">
								<SimplePredicate field="double(temp)" operator="lessOrEqual" value="28.921543631707053"/>
							</Node>
						</Node>
						<Node score="5.0">
							<SimplePredicate field="double(temp)" operator="lessOrEqual" value="29.85635146466731"/>
						</Node>
						<Node score="6.0">
							<SimplePredicate field="double(temp)" operator="lessOrEqual" value="30.391464598193515"/>
							<Node score="7.0">
								<SimplePredicate field="double(temp)" operator="lessOrEqual" value="30.090919631021887"/>
							</Node>
						</Node>
						<Node score="6.0">
							<SimplePredicate field="double(temp)" operator="lessOrEqual" value="30.494763566226727"/>
						</Node>
					</Node>
				</TreeModel>
			</Segment>
			<Segment id="13">
				<True/>
				<TreeModel functionName="regression" missingValueStrategy="nullPrediction" noTrueChildStrategy="returnLastPrediction">
					<MiningSchema>
						<MiningField name="double(temp)"/>
					</MiningSchema>
					<Node score="4.0">
						<True/>
						<Node score="1.0">
							<SimplePredicate field="double(temp)" operator="lessOrEqual" value="12.129298638899638"/>
						</Node>
						<Node score="9.0">
							<SimplePredicate field="double(temp)" operator="lessOrEqual" value="27.696467186514546"/>
							<Node score="13.817533633240295">
								<SimplePredicate field="double(temp)" operator="lessOrEqual" value="22.762896867616703"/>
								<Node score="9.296251627913692">
									<SimplePredicate field="double(temp)" operator="lessOrEqual" value="19.134035190925047"/>
									<Node score="7.207392357589623">
										<SimplePredicate field="double(temp)" operator="lessOrEqual" value="18.89144947922329"/>
										<Node score="6.0">
											<SimplePredicate field="double(temp)" operator="lessOrEqual" value="18.701221038942812"/>
										</Node>
									</Node>
									<Node score="9.327020052042847">
										<SimplePredicate field="double(temp)" operator="lessOrEqual" value="19.004599588077646"/>
										<Node score="8.851655907139286">
											<SimplePredicate field="double(temp)" operator="lessOrEqual" value="18.982640094017068"/>
										</Node>
									</Node>
								</Node>
								<Node score="7.0">
									<SimplePredicate field="double(temp)" operator="lessOrEqual" value="20.895362607992887"/>
									<Node score="9.706640488004599">
										<SimplePredicate field="double(temp)" operator="lessOrEqual" value="19.36667422505874"/>
										<Node score="9.706640488004599">
											<SimplePredicate field="double(temp)" operator="lessOrEqual" value="19.24192920891086"/>
										</Node>
									</Node>
									<Node score="14.021342222159635">
										<SimplePredicate field="double(temp)" operator="lessOrEqual" value="20.089439281807493"/>
										<Node score="10.327020052042847">
											<SimplePredicate field="double(temp)" operator="lessOrEqual" value="19.43580247523198"/>
										</Node>
									</Node>
								</Node>
								<Node score="6.0">
									<SimplePredicate field="double(temp)" operator="lessOrEqual" value="21.50308864977619"/>
								</Node>
								<Node score="14.320683008337449">
									<SimplePredicate field="double(temp)" operator="lessOrEqual" value="22.198331194460135"/>
									<Node score="11.023664553973461">
										<SimplePredicate field="double(temp)" operator="lessOrEqual" value="21.739469354338695"/>
									</Node>
								</Node>
								<Node score="13.590538990498956">
									<SimplePredicate field="double(temp)" operator="lessOrEqual" value="22.363165137433988"/>
								</Node>
							</Node>
							<Node score="8.023664553973461">
								<SimplePredicate field="double(temp)" operator="lessOrEqual" value="22.91478847176156"/>
								<Node score="7.3270200520428475">
									<SimplePredicate field="double(temp)" operator="lessOrEqual" value="22.860599200424556"/>
								</Node>
							</Node>
							<Node score="8.851655907139286">
								<SimplePredicate field="double(temp)" operator="lessOrEqual" value="26.05250041916173"/>
								<Node score="9.207392357589622">
									<SimplePredicate field="double(temp)" operator="lessOrEqual" value="25.47123978914285"/>
									<Node score="12.27809078322522">
										<SimplePredicate field="double(temp)" operator="lessOrEqual" value="25.062964448474496"/>
										<Node score="12.27809078322522">
											<SimplePredicate field="double(temp)" operator="lessOrEqual" value="23.8457353604027"/>
										</Node>
									</Node>
									<Node score="9.207392357589622">
										<SimplePredicate field="double(temp)" operator="lessOrEqual" value="25.238507968001294"/>
									</Node>
								</Node>
								<Node score="9.0">
									<SimplePredicate field="double(temp)" operator="lessOrEqual" value="25.791829199775137"/>
									<Node score="9.207392357589622">
										<SimplePredicate field="double(temp)" operator="lessOrEqual" value="25.616139751407015"/>
									</Node>
								</Node>
							</Node>
							<Node score="9.0">
								<SimplePredicate field="double(temp)" operator="lessOrEqual" value="27.15054907122668"/>
								<Node score="9.0">
									<SimplePredicate field="double(temp)" operator="lessOrEqual" value="26.490709347860577"/>
									<Node score="8.0">
										<SimplePredicate field="double(temp)" operator="lessOrEqual" value="26.335628401212688"/>
									</Node>
								</Node>
								<Node score="11.023664553973461">
									<SimplePredicate field="double(temp)" operator="lessOrEqual" value="27.092311439986503"/>
								</Node>
							</Node>
							<Node score="9.0">
